digraph Tree {
node [shape=box, style="filled, rounded", color="black", fontname="helvetica"] ;
edge [fontname="helvetica"] ;
0 [label=<x<SUB>4</SUB> &le; 0.086<br/>gini = 0.512<br/>samples = 412765<br/>value = [247401, 4799, 8297, 4819, 147449]>, fillcolor="#f5d0b4"] ;
1 [label=<x<SUB>3</SUB> &le; -1.853<br/>gini = 0.404<br/>samples = 186071<br/>value = [47520, 17, 59, 2916, 135559]>, fillcolor="#ee81d7"] ;
0 -> 1 [labeldistance=2.5, labelangle=45, headlabel="True"] ;
2 [label=<x<SUB>0</SUB> &le; -0.12<br/>gini = 0.426<br/>samples = 22896<br/>value = [15839, 0, 0, 0, 7057]>, fillcolor="#f1b991"] ;
1 -> 2 ;
3 [label=<x<SUB>3</SUB> &le; -2.24<br/>gini = 0.5<br/>samples = 10751<br/>value = [5376, 0, 0, 0, 5375]>, fillcolor="#ffffff"] ;
2 -> 3 ;
4 [label=<x<SUB>3</SUB> &le; -2.242<br/>gini = 0.035<br/>samples = 2385<br/>value = [2343, 0, 0, 0, 42]>, fillcolor="#e5833d"] ;
3 -> 4 ;
5 [label=<x<SUB>6</SUB> &le; 2.313<br/>gini = 0.007<br/>samples = 2248<br/>value = [2240, 0, 0, 0, 8]>, fillcolor="#e5813a"] ;
4 -> 5 ;
6 [label=<x<SUB>0</SUB> &le; -1.093<br/>gini = 0.003<br/>samples = 2231<br/>value = [2228, 0, 0, 0, 3]>, fillcolor="#e58139"] ;
5 -> 6 ;
7 [label=<gini = 0.0<br/>samples = 2154<br/>value = [2154, 0, 0, 0, 0]>, fillcolor="#e58139"] ;
6 -> 7 ;
8 [label=<x<SUB>4</SUB> &le; -1.884<br/>gini = 0.075<br/>samples = 77<br/>value = [74, 0, 0, 0, 3]>, fillcolor="#e68641"] ;
6 -> 8 ;
9 [label=<gini = 0.0<br/>samples = 2<br/>value = [0, 0, 0, 0, 2]>, fillcolor="#e539c0"] ;
8 -> 9 ;
10 [label=<x<SUB>4</SUB> &le; -1.882<br/>gini = 0.026<br/>samples = 75<br/>value = [74, 0, 0, 0, 1]>, fillcolor="#e5833c"] ;
8 -> 10 ;
11 [label=<x<SUB>1</SUB> &le; -1.689<br/>gini = 0.444<br/>samples = 3<br/>value = [2, 0, 0, 0, 1]>, fillcolor="#f2c09c"] ;
10 -> 11 ;
12 [label=<gini = 0.0<br/>samples = 2<br/>value = [2, 0, 0, 0, 0]>, fillcolor="#e58139"] ;
11 -> 12 ;
13 [label=<gini = 0.0<br/>samples = 1<br/>value = [0, 0, 0, 0, 1]>, fillcolor="#e539c0"] ;
11 -> 13 ;
14 [label=<gini = 0.0<br/>samples = 72<br/>value = [72, 0, 0, 0, 0]>, fillcolor="#e58139"] ;
10 -> 14 ;
15 [label=<x<SUB>4</SUB> &le; -1.883<br/>gini = 0.415<br/>samples = 17<br/>value = [12, 0, 0, 0, 5]>, fillcolor="#f0b58b"] ;
5 -> 15 ;
16 [label=<gini = 0.0<br/>samples = 5<br/>value = [0, 0, 0, 0, 5]>, fillcolor="#e539c0"] ;
15 -> 16 ;
17 [label=<gini = 0.0<br/>samples = 12<br/>value = [12, 0, 0, 0, 0]>, fillcolor="#e58139"] ;
15 -> 17 ;
18 [label=<x<SUB>5</SUB> &le; 3.004<br/>gini = 0.373<br/>samples = 137<br/>value = [103, 0, 0, 0, 34]>, fillcolor="#eeab7a"] ;
4 -> 18 ;
19 [label=<x<SUB>4</SUB> &le; -1.882<br/>gini = 0.124<br/>samples = 90<br/>value = [84, 0, 0, 0, 6]>, fillcolor="#e78a47"] ;
18 -> 19 ;
20 [label=<gini = 0.0<br/>samples = 5<br/>value = [0, 0, 0, 0, 5]>, fillcolor="#e539c0"] ;
19 -> 20 ;
21 [label=<x<SUB>4</SUB> &le; -1.882<br/>gini = 0.023<br/>samples = 85<br/>value = [84, 0, 0, 0, 1]>, fillcolor="#e5823b"] ;
19 -> 21 ;
22 [label=<x<SUB>1</SUB> &le; -1.666<br/>gini = 0.444<br/>samples = 3<br/>value = [2, 0, 0, 0, 1]>, fillcolor="#f2c09c"] ;
21 -> 22 ;
23 [label=<gini = 0.0<br/>samples = 2<br/>value = [2, 0, 0, 0, 0]>, fillcolor="#e58139"] ;
22 -> 23 ;
24 [label=<gini = 0.0<br/>samples = 1<br/>value = [0, 0, 0, 0, 1]>, fillcolor="#e539c0"] ;
22 -> 24 ;
25 [label=<gini = 0.0<br/>samples = 82<br/>value = [82, 0, 0, 0, 0]>, fillcolor="#e58139"] ;
21 -> 25 ;
26 [label=<x<SUB>6</SUB> &le; 2.198<br/>gini = 0.482<br/>samples = 47<br/>value = [19, 0, 0, 0, 28]>, fillcolor="#f7bfeb"] ;
18 -> 26 ;
27 [label=<gini = 0.0<br/>samples = 10<br/>value = [10, 0, 0, 0, 0]>, fillcolor="#e58139"] ;
26 -> 27 ;
28 [label=<x<SUB>4</SUB> &le; -1.878<br/>gini = 0.368<br/>samples = 37<br/>value = [9, 0, 0, 0, 28]>, fillcolor="#ed79d4"] ;
26 -> 28 ;
29 [label=<x<SUB>4</SUB> &le; -1.88<br/>gini = 0.219<br/>samples = 32<br/>value = [4, 0, 0, 0, 28]>, fillcolor="#e955c9"] ;
28 -> 29 ;
30 [label=<gini = 0.0<br/>samples = 18<br/>value = [0, 0, 0, 0, 18]>, fillcolor="#e539c0"] ;
29 -> 30 ;
31 [label=<x<SUB>3</SUB> &le; -2.241<br/>gini = 0.408<br/>samples = 14<br/>value = [4, 0, 0, 0, 10]>, fillcolor="#ef88d9"] ;
29 -> 31 ;
32 [label=<gini = 0.0<br/>samples = 3<br/>value = [3, 0, 0, 0, 0]>, fillcolor="#e58139"] ;
31 -> 32 ;
33 [label=<x<SUB>5</SUB> &le; 3.039<br/>gini = 0.165<br/>samples = 11<br/>value = [1, 0, 0, 0, 10]>, fillcolor="#e84dc6"] ;
31 -> 33 ;
34 [label=<gini = 0.0<br/>samples = 1<br/>value = [1, 0, 0, 0, 0]>, fillcolor="#e58139"] ;
33 -> 34 ;
35 [label=<gini = 0.0<br/>samples = 10<br/>value = [0, 0, 0, 0, 10]>, fillcolor="#e539c0"] ;
33 -> 35 ;
36 [label=<gini = 0.0<br/>samples = 5<br/>value = [5, 0, 0, 0, 0]>, fillcolor="#e58139"] ;
28 -> 36 ;
37 [label=<x<SUB>1</SUB> &le; -2.288<br/>gini = 0.462<br/>samples = 8366<br/>value = [3033, 0, 0, 0, 5333]>, fillcolor="#f4aae4"] ;
3 -> 37 ;
38 [label=<x<SUB>0</SUB> &le; -0.202<br/>gini = 0.317<br/>samples = 2468<br/>value = [1981, 0, 0, 0, 487]>, fillcolor="#eba06a"] ;
37 -> 38 ;
39 [label=<x<SUB>0</SUB> &le; -0.715<br/>gini = 0.249<br/>samples = 2318<br/>value = [1980, 0, 0, 0, 338]>, fillcolor="#e9975b"] ;
38 -> 39 ;
40 [label=<x<SUB>0</SUB> &le; -1.304<br/>gini = 0.407<br/>samples = 974<br/>value = [697, 0, 0, 0, 277]>, fillcolor="#efb388"] ;
39 -> 40 ;
41 [label=<x<SUB>6</SUB> &le; 0.462<br/>gini = 0.28<br/>samples = 830<br/>value = [690, 0, 0, 0, 140]>, fillcolor="#ea9b61"] ;
40 -> 41 ;
42 [label=<gini = 0.0<br/>samples = 34<br/>value = [0, 0, 0, 0, 34]>, fillcolor="#e539c0"] ;
41 -> 42 ;
43 [label=<x<SUB>3</SUB> &le; -1.968<br/>gini = 0.231<br/>samples = 796<br/>value = [690, 0, 0, 0, 106]>, fillcolor="#e99457"] ;
41 -> 43 ;
44 [label=<x<SUB>6</SUB> &le; 0.516<br/>gini = 0.005<br/>samples = 369<br/>value = [368, 0, 0, 0, 1]>, fillcolor="#e5813a"] ;
43 -> 44 ;
45 [label=<gini = 0.0<br/>samples = 1<br/>value = [0, 0, 0, 0, 1]>, fillcolor="#e539c0"] ;
44 -> 45 ;
46 [label=<gini = 0.0<br/>samples = 368<br/>value = [368, 0, 0, 0, 0]>, fillcolor="#e58139"] ;
44 -> 46 ;
47 [label=<x<SUB>4</SUB> &le; -1.657<br/>gini = 0.371<br/>samples = 427<br/>value = [322, 0, 0, 0, 105]>, fillcolor="#edaa7a"] ;
43 -> 47 ;
48 [label=<x<SUB>5</SUB> &le; 0.65<br/>gini = 0.121<br/>samples = 31<br/>value = [2, 0, 0, 0, 29]>, fillcolor="#e747c4"] ;
47 -> 48 ;
49 [label=<x<SUB>6</SUB> &le; 1.211<br/>gini = 0.5<br/>samples = 4<br/>value = [2, 0, 0, 0, 2]>, fillcolor="#ffffff"] ;
48 -> 49 ;
50 [label=<gini = 0.0<br/>samples = 2<br/>value = [0, 0, 0, 0, 2]>, fillcolor="#e539c0"] ;
49 -> 50 ;
51 [label=<gini = 0.0<br/>samples = 2<br/>value = [2, 0, 0, 0, 0]>, fillcolor="#e58139"] ;
49 -> 51 ;
52 [label=<gini = 0.0<br/>samples = 27<br/>value = [0, 0, 0, 0, 27]>, fillcolor="#e539c0"] ;
48 -> 52 ;
53 [label=<x<SUB>4</SUB> &le; -1.587<br/>gini = 0.31<br/>samples = 396<br/>value = [320, 0, 0, 0, 76]>, fillcolor="#eb9f68"] ;
47 -> 53 ;
54 [label=<x<SUB>3</SUB> &le; -1.938<br/>gini = 0.452<br/>samples = 142<br/>value = [93, 0, 0, 0, 49]>, fillcolor="#f3c3a1"] ;
53 -> 54 ;
55 [label=<x<SUB>0</SUB> &le; -1.309<br/>gini = 0.245<br/>samples = 84<br/>value = [72, 0, 0, 0, 12]>, fillcolor="#e9965a"] ;
54 -> 55 ;
56 [label=<x<SUB>6</SUB> &le; 0.582<br/>gini = 0.081<br/>samples = 71<br/>value = [68, 0, 0, 0, 3]>, fillcolor="#e68742"] ;
55 -> 56 ;
57 [label=<gini = 0.0<br/>samples = 1<br/>value = [0, 0, 0, 0, 1]>, fillcolor="#e539c0"] ;
56 -> 57 ;
58 [label=<x<SUB>6</SUB> &le; 0.615<br/>gini = 0.056<br/>samples = 70<br/>value = [68, 0, 0, 0, 2]>, fillcolor="#e6853f"] ;
56 -> 58 ;
59 [label=<x<SUB>1</SUB> &le; -2.4<br/>gini = 0.444<br/>samples = 3<br/>value = [2, 0, 0, 0, 1]>, fillcolor="#f2c09c"] ;
58 -> 59 ;
60 [label=<gini = 0.0<br/>samples = 2<br/>value = [2, 0, 0, 0, 0]>, fillcolor="#e58139"] ;
59 -> 60 ;
61 [label=<gini = 0.0<br/>samples = 1<br/>value = [0, 0, 0, 0, 1]>, fillcolor="#e539c0"] ;
59 -> 61 ;
62 [label=<x<SUB>0</SUB> &le; -1.309<br/>gini = 0.029<br/>samples = 67<br/>value = [66, 0, 0, 0, 1]>, fillcolor="#e5833c"] ;
58 -> 62 ;
63 [label=<gini = 0.0<br/>samples = 62<br/>value = [62, 0, 0, 0, 0]>, fillcolor="#e58139"] ;
62 -> 63 ;
64 [label=<x<SUB>0</SUB> &le; -1.309<br/>gini = 0.32<br/>samples = 5<br/>value = [4, 0, 0, 0, 1]>, fillcolor="#eca06a"] ;
62 -> 64 ;
65 [label=<gini = 0.0<br/>samples = 1<br/>value = [0, 0, 0, 0, 1]>, fillcolor="#e539c0"] ;
64 -> 65 ;
66 [label=<gini = 0.0<br/>samples = 4<br/>value = [4, 0, 0, 0, 0]>, fillcolor="#e58139"] ;
64 -> 66 ;
67 [label=<x<SUB>5</SUB> &le; 1.064<br/>gini = 0.426<br/>samples = 13<br/>value = [4, 0, 0, 0, 9]>, fillcolor="#f191dc"] ;
55 -> 67 ;
68 [label=<gini = 0.0<br/>samples = 9<br/>value = [0, 0, 0, 0, 9]>, fillcolor="#e539c0"] ;
67 -> 68 ;
69 [label=<gini = 0.0<br/>samples = 4<br/>value = [4, 0, 0, 0, 0]>, fillcolor="#e58139"] ;
67 -> 69 ;
70 [label=<x<SUB>2</SUB> &le; -2.363<br/>gini = 0.462<br/>samples = 58<br/>value = [21, 0, 0, 0, 37]>, fillcolor="#f4a9e4"] ;
54 -> 70 ;
71 [label=<gini = 0.0<br/>samples = 11<br/>value = [11, 0, 0, 0, 0]>, fillcolor="#e58139"] ;
70 -> 71 ;
72 [label=<x<SUB>0</SUB> &le; -1.309<br/>gini = 0.335<br/>samples = 47<br/>value = [10, 0, 0, 0, 37]>, fillcolor="#ec6fd1"] ;
70 -> 72 ;
73 [label=<x<SUB>6</SUB> &le; 0.688<br/>gini = 0.21<br/>samples = 42<br/>value = [5, 0, 0, 0, 37]>, fillcolor="#e954c9"] ;
72 -> 73 ;
74 [label=<gini = 0.0<br/>samples = 17<br/>value = [0, 0, 0, 0, 17]>, fillcolor="#e539c0"] ;
73 -> 74 ;
75 [label=<x<SUB>6</SUB> &le; 0.692<br/>gini = 0.32<br/>samples = 25<br/>value = [5, 0, 0, 0, 20]>, fillcolor="#ec6ad0"] ;
73 -> 75 ;
76 [label=<gini = 0.0<br/>samples = 1<br/>value = [1, 0, 0, 0, 0]>, fillcolor="#e58139"] ;
75 -> 76 ;
77 [label=<x<SUB>2</SUB> &le; -2.361<br/>gini = 0.278<br/>samples = 24<br/>value = [4, 0, 0, 0, 20]>, fillcolor="#ea61cd"] ;
75 -> 77 ;
78 [label=<gini = 0.0<br/>samples = 8<br/>value = [0, 0, 0, 0, 8]>, fillcolor="#e539c0"] ;
77 -> 78 ;
79 [label=<x<SUB>4</SUB> &le; -1.606<br/>gini = 0.375<br/>samples = 16<br/>value = [4, 0, 0, 0, 12]>, fillcolor="#ee7bd5"] ;
77 -> 79 ;
80 [label=<gini = 0.0<br/>samples = 7<br/>value = [0, 0, 0, 0, 7]>, fillcolor="#e539c0"] ;
79 -> 80 ;
81 [label=<x<SUB>5</SUB> &le; 1.065<br/>gini = 0.494<br/>samples = 9<br/>value = [4, 0, 0, 0, 5]>, fillcolor="#fad7f2"] ;
79 -> 81 ;
82 [label=<gini = 0.0<br/>samples = 3<br/>value = [3, 0, 0, 0, 0]>, fillcolor="#e58139"] ;
81 -> 82 ;
83 [label=<x<SUB>4</SUB> &le; -1.601<br/>gini = 0.278<br/>samples = 6<br/>value = [1, 0, 0, 0, 5]>, fillcolor="#ea61cd"] ;
81 -> 83 ;
84 [label=<gini = 0.0<br/>samples = 1<br/>value = [1, 0, 0, 0, 0]>, fillcolor="#e58139"] ;
83 -> 84 ;
85 [label=<gini = 0.0<br/>samples = 5<br/>value = [0, 0, 0, 0, 5]>, fillcolor="#e539c0"] ;
83 -> 85 ;
86 [label=<gini = 0.0<br/>samples = 5<br/>value = [5, 0, 0, 0, 0]>, fillcolor="#e58139"] ;
72 -> 86 ;
87 [label=<x<SUB>3</SUB> &le; -1.87<br/>gini = 0.19<br/>samples = 254<br/>value = [227, 0, 0, 0, 27]>, fillcolor="#e89051"] ;
53 -> 87 ;
88 [label=<x<SUB>6</SUB> &le; 1.336<br/>gini = 0.081<br/>samples = 214<br/>value = [205, 0, 0, 0, 9]>, fillcolor="#e68742"] ;
87 -> 88 ;
89 [label=<x<SUB>6</SUB> &le; 0.76<br/>gini = 0.064<br/>samples = 212<br/>value = [205, 0, 0, 0, 7]>, fillcolor="#e68540"] ;
88 -> 89 ;
90 [label=<x<SUB>4</SUB> &le; -1.586<br/>gini = 0.013<br/>samples = 148<br/>value = [147, 0, 0, 0, 1]>, fillcolor="#e5823a"] ;
89 -> 90 ;
91 [label=<x<SUB>0</SUB> &le; -1.31<br/>gini = 0.375<br/>samples = 4<br/>value = [3, 0, 0, 0, 1]>, fillcolor="#eeab7b"] ;
90 -> 91 ;
92 [label=<gini = 0.0<br/>samples = 1<br/>value = [0, 0, 0, 0, 1]>, fillcolor="#e539c0"] ;
91 -> 92 ;
93 [label=<gini = 0.0<br/>samples = 3<br/>value = [3, 0, 0, 0, 0]>, fillcolor="#e58139"] ;
91 -> 93 ;
94 [label=<gini = 0.0<br/>samples = 144<br/>value = [144, 0, 0, 0, 0]>, fillcolor="#e58139"] ;
90 -> 94 ;
95 [label=<x<SUB>0</SUB> &le; -1.31<br/>gini = 0.17<br/>samples = 64<br/>value = [58, 0, 0, 0, 6]>, fillcolor="#e88e4d"] ;
89 -> 95 ;
96 [label=<gini = 0.0<br/>samples = 39<br/>value = [39, 0, 0, 0, 0]>, fillcolor="#e58139"] ;
95 -> 96 ;
97 [label=<x<SUB>2</SUB> &le; -2.362<br/>gini = 0.365<br/>samples = 25<br/>value = [19, 0, 0, 0, 6]>, fillcolor="#eda978"] ;
95 -> 97 ;
98 [label=<gini = 0.0<br/>samples = 4<br/>value = [0, 0, 0, 0, 4]>, fillcolor="#e539c0"] ;
97 -> 98 ;
99 [label=<x<SUB>6</SUB> &le; 0.838<br/>gini = 0.172<br/>samples = 21<br/>value = [19, 0, 0, 0, 2]>, fillcolor="#e88e4e"] ;
97 -> 99 ;
100 [label=<x<SUB>5</SUB> &le; 0.972<br/>gini = 0.095<br/>samples = 20<br/>value = [19, 0, 0, 0, 1]>, fillcolor="#e68843"] ;
99 -> 100 ;
101 [label=<x<SUB>1</SUB> &le; -2.314<br/>gini = 0.5<br/>samples = 2<br/>value = [1, 0, 0, 0, 1]>, fillcolor="#ffffff"] ;
100 -> 101 ;
102 [label=<gini = 0.0<br/>samples = 1<br/>value = [1, 0, 0, 0, 0]>, fillcolor="#e58139"] ;
101 -> 102 ;
103 [label=<gini = 0.0<br/>samples = 1<br/>value = [0, 0, 0, 0, 1]>, fillcolor="#e539c0"] ;
101 -> 103 ;
104 [label=<gini = 0.0<br/>samples = 18<br/>value = [18, 0, 0, 0, 0]>, fillcolor="#e58139"] ;
100 -> 104 ;
105 [label=<gini = 0.0<br/>samples = 1<br/>value = [0, 0, 0, 0, 1]>, fillcolor="#e539c0"] ;
99 -> 105 ;
106 [label=<gini = 0.0<br/>samples = 2<br/>value = [0, 0, 0, 0, 2]>, fillcolor="#e539c0"] ;
88 -> 106 ;
107 [label=<x<SUB>4</SUB> &le; -1.549<br/>gini = 0.495<br/>samples = 40<br/>value = [22, 0, 0, 0, 18]>, fillcolor="#fae8db"] ;
87 -> 107 ;
108 [label=<gini = 0.0<br/>samples = 12<br/>value = [0, 0, 0, 0, 12]>, fillcolor="#e539c0"] ;
107 -> 108 ;
109 [label=<x<SUB>3</SUB> &le; -1.861<br/>gini = 0.337<br/>samples = 28<br/>value = [22, 0, 0, 0, 6]>, fillcolor="#eca36f"] ;
107 -> 109 ;
110 [label=<x<SUB>3</SUB> &le; -1.863<br/>gini = 0.159<br/>samples = 23<br/>value = [21, 0, 0, 0, 2]>, fillcolor="#e78d4c"] ;
109 -> 110 ;
111 [label=<gini = 0.0<br/>samples = 17<br/>value = [17, 0, 0, 0, 0]>, fillcolor="#e58139"] ;
110 -> 111 ;
112 [label=<x<SUB>0</SUB> &le; -1.31<br/>gini = 0.444<br/>samples = 6<br/>value = [4, 0, 0, 0, 2]>, fillcolor="#f2c09c"] ;
110 -> 112 ;
113 [label=<gini = 0.0<br/>samples = 2<br/>value = [0, 0, 0, 0, 2]>, fillcolor="#e539c0"] ;
112 -> 113 ;
114 [label=<gini = 0.0<br/>samples = 4<br/>value = [4, 0, 0, 0, 0]>, fillcolor="#e58139"] ;
112 -> 114 ;
115 [label=<x<SUB>2</SUB> &le; -2.366<br/>gini = 0.32<br/>samples = 5<br/>value = [1, 0, 0, 0, 4]>, fillcolor="#ec6ad0"] ;
109 -> 115 ;
116 [label=<gini = 0.0<br/>samples = 4<br/>value = [0, 0, 0, 0, 4]>, fillcolor="#e539c0"] ;
115 -> 116 ;
117 [label=<gini = 0.0<br/>samples = 1<br/>value = [1, 0, 0, 0, 0]>, fillcolor="#e58139"] ;
115 -> 117 ;
118 [label=<x<SUB>6</SUB> &le; 0.951<br/>gini = 0.092<br/>samples = 144<br/>value = [7, 0, 0, 0, 137]>, fillcolor="#e643c3"] ;
40 -> 118 ;
119 [label=<gini = 0.0<br/>samples = 110<br/>value = [0, 0, 0, 0, 110]>, fillcolor="#e539c0"] ;
118 -> 119 ;
120 [label=<x<SUB>3</SUB> &le; -2.194<br/>gini = 0.327<br/>samples = 34<br/>value = [7, 0, 0, 0, 27]>, fillcolor="#ec6cd0"] ;
118 -> 120 ;
121 [label=<x<SUB>2</SUB> &le; -0.978<br/>gini = 0.245<br/>samples = 7<br/>value = [6, 0, 0, 0, 1]>, fillcolor="#e9965a"] ;
120 -> 121 ;
122 [label=<gini = 0.0<br/>samples = 6<br/>value = [6, 0, 0, 0, 0]>, fillcolor="#e58139"] ;
121 -> 122 ;
123 [label=<gini = 0.0<br/>samples = 1<br/>value = [0, 0, 0, 0, 1]>, fillcolor="#e539c0"] ;
121 -> 123 ;
124 [label=<x<SUB>0</SUB> &le; -1.074<br/>gini = 0.071<br/>samples = 27<br/>value = [1, 0, 0, 0, 26]>, fillcolor="#e641c2"] ;
120 -> 124 ;
125 [label=<gini = 0.0<br/>samples = 1<br/>value = [1, 0, 0, 0, 0]>, fillcolor="#e58139"] ;
124 -> 125 ;
126 [label=<gini = 0.0<br/>samples = 26<br/>value = [0, 0, 0, 0, 26]>, fillcolor="#e539c0"] ;
124 -> 126 ;
127 [label=<x<SUB>2</SUB> &le; -0.267<br/>gini = 0.087<br/>samples = 1344<br/>value = [1283, 0, 0, 0, 61]>, fillcolor="#e68742"] ;
39 -> 127 ;
128 [label=<x<SUB>6</SUB> &le; -0.613<br/>gini = 0.031<br/>samples = 1276<br/>value = [1256, 0, 0, 0, 20]>, fillcolor="#e5833c"] ;
127 -> 128 ;
129 [label=<gini = 0.0<br/>samples = 2<br/>value = [0, 0, 0, 0, 2]>, fillcolor="#e539c0"] ;
128 -> 129 ;
130 [label=<x<SUB>2</SUB> &le; -0.322<br/>gini = 0.028<br/>samples = 1274<br/>value = [1256, 0, 0, 0, 18]>, fillcolor="#e5833c"] ;
128 -> 130 ;
131 [label=<x<SUB>6</SUB> &le; 1.252<br/>gini = 0.007<br/>samples = 1126<br/>value = [1122, 0, 0, 0, 4]>, fillcolor="#e5813a"] ;
130 -> 131 ;
132 [label=<x<SUB>0</SUB> &le; -0.202<br/>gini = 0.005<br/>samples = 1125<br/>value = [1122, 0, 0, 0, 3]>, fillcolor="#e5813a"] ;
131 -> 132 ;
133 [label=<x<SUB>1</SUB> &le; -2.288<br/>gini = 0.002<br/>samples = 1121<br/>value = [1120, 0, 0, 0, 1]>, fillcolor="#e58139"] ;
132 -> 133 ;
134 [label=<gini = 0.0<br/>samples = 1119<br/>value = [1119, 0, 0, 0, 0]>, fillcolor="#e58139"] ;
133 -> 134 ;
135 [label=<x<SUB>6</SUB> &le; 0.858<br/>gini = 0.5<br/>samples = 2<br/>value = [1, 0, 0, 0, 1]>, fillcolor="#ffffff"] ;
133 -> 135 ;
136 [label=<gini = 0.0<br/>samples = 1<br/>value = [0, 0, 0, 0, 1]>, fillcolor="#e539c0"] ;
135 -> 136 ;
137 [label=<gini = 0.0<br/>samples = 1<br/>value = [1, 0, 0, 0, 0]>, fillcolor="#e58139"] ;
135 -> 137 ;
138 [label=<x<SUB>1</SUB> &le; -2.354<br/>gini = 0.5<br/>samples = 4<br/>value = [2, 0, 0, 0, 2]>, fillcolor="#ffffff"] ;
132 -> 138 ;
139 [label=<gini = 0.0<br/>samples = 2<br/>value = [0, 0, 0, 0, 2]>, fillcolor="#e539c0"] ;
138 -> 139 ;
140 [label=<gini = 0.0<br/>samples = 2<br/>value = [2, 0, 0, 0, 0]>, fillcolor="#e58139"] ;
138 -> 140 ;
141 [label=<gini = 0.0<br/>samples = 1<br/>value = [0, 0, 0, 0, 1]>, fillcolor="#e539c0"] ;
131 -> 141 ;
142 [label=<x<SUB>4</SUB> &le; -1.666<br/>gini = 0.171<br/>samples = 148<br/>value = [134, 0, 0, 0, 14]>, fillcolor="#e88e4e"] ;
130 -> 142 ;
143 [label=<x<SUB>1</SUB> &le; -2.491<br/>gini = 0.278<br/>samples = 6<br/>value = [1, 0, 0, 0, 5]>, fillcolor="#ea61cd"] ;
142 -> 143 ;
144 [label=<gini = 0.0<br/>samples = 1<br/>value = [1, 0, 0, 0, 0]>, fillcolor="#e58139"] ;
143 -> 144 ;
145 [label=<gini = 0.0<br/>samples = 5<br/>value = [0, 0, 0, 0, 5]>, fillcolor="#e539c0"] ;
143 -> 145 ;
146 [label=<x<SUB>4</SUB> &le; -1.66<br/>gini = 0.119<br/>samples = 142<br/>value = [133, 0, 0, 0, 9]>, fillcolor="#e78a46"] ;
142 -> 146 ;
147 [label=<x<SUB>3</SUB> &le; -1.998<br/>gini = 0.26<br/>samples = 39<br/>value = [33, 0, 0, 0, 6]>, fillcolor="#ea985d"] ;
146 -> 147 ;
148 [label=<x<SUB>5</SUB> &le; 0.078<br/>gini = 0.074<br/>samples = 26<br/>value = [25, 0, 0, 0, 1]>, fillcolor="#e68641"] ;
147 -> 148 ;
149 [label=<gini = 0.0<br/>samples = 21<br/>value = [21, 0, 0, 0, 0]>, fillcolor="#e58139"] ;
148 -> 149 ;
150 [label=<x<SUB>3</SUB> &le; -2.0<br/>gini = 0.32<br/>samples = 5<br/>value = [4, 0, 0, 0, 1]>, fillcolor="#eca06a"] ;
148 -> 150 ;
151 [label=<gini = 0.0<br/>samples = 4<br/>value = [4, 0, 0, 0, 0]>, fillcolor="#e58139"] ;
150 -> 151 ;
152 [label=<gini = 0.0<br/>samples = 1<br/>value = [0, 0, 0, 0, 1]>, fillcolor="#e539c0"] ;
150 -> 152 ;
153 [label=<x<SUB>1</SUB> &le; -2.486<br/>gini = 0.473<br/>samples = 13<br/>value = [8, 0, 0, 0, 5]>, fillcolor="#f5d0b5"] ;
147 -> 153 ;
154 [label=<x<SUB>6</SUB> &le; -0.467<br/>gini = 0.408<br/>samples = 7<br/>value = [2, 0, 0, 0, 5]>, fillcolor="#ef88d9"] ;
153 -> 154 ;
155 [label=<gini = 0.0<br/>samples = 2<br/>value = [2, 0, 0, 0, 0]>, fillcolor="#e58139"] ;
154 -> 155 ;
156 [label=<gini = 0.0<br/>samples = 5<br/>value = [0, 0, 0, 0, 5]>, fillcolor="#e539c0"] ;
154 -> 156 ;
157 [label=<gini = 0.0<br/>samples = 6<br/>value = [6, 0, 0, 0, 0]>, fillcolor="#e58139"] ;
153 -> 157 ;
158 [label=<x<SUB>3</SUB> &le; -1.981<br/>gini = 0.057<br/>samples = 103<br/>value = [100, 0, 0, 0, 3]>, fillcolor="#e6853f"] ;
146 -> 158 ;
159 [label=<x<SUB>6</SUB> &le; -0.325<br/>gini = 0.039<br/>samples = 101<br/>value = [99, 0, 0, 0, 2]>, fillcolor="#e6843d"] ;
158 -> 159 ;
160 [label=<x<SUB>5</SUB> &le; 0.076<br/>gini = 0.02<br/>samples = 99<br/>value = [98, 0, 0, 0, 1]>, fillcolor="#e5823b"] ;
159 -> 160 ;
161 [label=<gini = 0.0<br/>samples = 94<br/>value = [94, 0, 0, 0, 0]>, fillcolor="#e58139"] ;
160 -> 161 ;
162 [label=<x<SUB>3</SUB> &le; -1.99<br/>gini = 0.32<br/>samples = 5<br/>value = [4, 0, 0, 0, 1]>, fillcolor="#eca06a"] ;
160 -> 162 ;
163 [label=<gini = 0.0<br/>samples = 4<br/>value = [4, 0, 0, 0, 0]>, fillcolor="#e58139"] ;
162 -> 163 ;
164 [label=<gini = 0.0<br/>samples = 1<br/>value = [0, 0, 0, 0, 1]>, fillcolor="#e539c0"] ;
162 -> 164 ;
165 [label=<x<SUB>3</SUB> &le; -1.986<br/>gini = 0.5<br/>samples = 2<br/>value = [1, 0, 0, 0, 1]>, fillcolor="#ffffff"] ;
159 -> 165 ;
166 [label=<gini = 0.0<br/>samples = 1<br/>value = [1, 0, 0, 0, 0]>, fillcolor="#e58139"] ;
165 -> 166 ;
167 [label=<gini = 0.0<br/>samples = 1<br/>value = [0, 0, 0, 0, 1]>, fillcolor="#e539c0"] ;
165 -> 167 ;
168 [label=<x<SUB>6</SUB> &le; -0.427<br/>gini = 0.5<br/>samples = 2<br/>value = [1, 0, 0, 0, 1]>, fillcolor="#ffffff"] ;
158 -> 168 ;
169 [label=<gini = 0.0<br/>samples = 1<br/>value = [1, 0, 0, 0, 0]>, fillcolor="#e58139"] ;
168 -> 169 ;
170 [label=<gini = 0.0<br/>samples = 1<br/>value = [0, 0, 0, 0, 1]>, fillcolor="#e539c0"] ;
168 -> 170 ;
171 [label=<x<SUB>4</SUB> &le; -1.649<br/>gini = 0.479<br/>samples = 68<br/>value = [27, 0, 0, 0, 41]>, fillcolor="#f6bbe9"] ;
127 -> 171 ;
172 [label=<x<SUB>5</SUB> &le; -0.105<br/>gini = 0.255<br/>samples = 20<br/>value = [3, 0, 0, 0, 17]>, fillcolor="#ea5ccb"] ;
171 -> 172 ;
173 [label=<gini = 0.0<br/>samples = 2<br/>value = [2, 0, 0, 0, 0]>, fillcolor="#e58139"] ;
172 -> 173 ;
174 [label=<x<SUB>5</SUB> &le; -0.071<br/>gini = 0.105<br/>samples = 18<br/>value = [1, 0, 0, 0, 17]>, fillcolor="#e745c4"] ;
172 -> 174 ;
175 [label=<x<SUB>0</SUB> &le; -0.337<br/>gini = 0.444<br/>samples = 3<br/>value = [1, 0, 0, 0, 2]>, fillcolor="#f29ce0"] ;
174 -> 175 ;
176 [label=<gini = 0.0<br/>samples = 1<br/>value = [1, 0, 0, 0, 0]>, fillcolor="#e58139"] ;
175 -> 176 ;
177 [label=<gini = 0.0<br/>samples = 2<br/>value = [0, 0, 0, 0, 2]>, fillcolor="#e539c0"] ;
175 -> 177 ;
178 [label=<gini = 0.0<br/>samples = 15<br/>value = [0, 0, 0, 0, 15]>, fillcolor="#e539c0"] ;
174 -> 178 ;
179 [label=<x<SUB>2</SUB> &le; -0.237<br/>gini = 0.5<br/>samples = 48<br/>value = [24, 0, 0, 0, 24]>, fillcolor="#ffffff"] ;
171 -> 179 ;
180 [label=<x<SUB>0</SUB> &le; -0.337<br/>gini = 0.496<br/>samples = 44<br/>value = [20, 0, 0, 0, 24]>, fillcolor="#fbdef4"] ;
179 -> 180 ;
181 [label=<gini = 0.0<br/>samples = 7<br/>value = [0, 0, 0, 0, 7]>, fillcolor="#e539c0"] ;
180 -> 181 ;
182 [label=<x<SUB>3</SUB> &le; -1.973<br/>gini = 0.497<br/>samples = 37<br/>value = [20, 0, 0, 0, 17]>, fillcolor="#fbece1"] ;
180 -> 182 ;
183 [label=<x<SUB>6</SUB> &le; -0.302<br/>gini = 0.471<br/>samples = 29<br/>value = [18, 0, 0, 0, 11]>, fillcolor="#f5ceb2"] ;
182 -> 183 ;
184 [label=<x<SUB>6</SUB> &le; -0.343<br/>gini = 0.497<br/>samples = 24<br/>value = [13, 0, 0, 0, 11]>, fillcolor="#fbece1"] ;
183 -> 184 ;
185 [label=<x<SUB>6</SUB> &le; -0.351<br/>gini = 0.444<br/>samples = 18<br/>value = [12, 0, 0, 0, 6]>, fillcolor="#f2c09c"] ;
184 -> 185 ;
186 [label=<x<SUB>6</SUB> &le; -0.359<br/>gini = 0.497<br/>samples = 13<br/>value = [7, 0, 0, 0, 6]>, fillcolor="#fbede3"] ;
185 -> 186 ;
187 [label=<x<SUB>6</SUB> &le; -0.366<br/>gini = 0.42<br/>samples = 10<br/>value = [7, 0, 0, 0, 3]>, fillcolor="#f0b78e"] ;
186 -> 187 ;
188 [label=<x<SUB>0</SUB> &le; -0.337<br/>gini = 0.5<br/>samples = 6<br/>value = [3, 0, 0, 0, 3]>, fillcolor="#ffffff"] ;
187 -> 188 ;
189 [label=<gini = 0.0<br/>samples = 2<br/>value = [0, 0, 0, 0, 2]>, fillcolor="#e539c0"] ;
188 -> 189 ;
190 [label=<x<SUB>5</SUB> &le; 0.077<br/>gini = 0.375<br/>samples = 4<br/>value = [3, 0, 0, 0, 1]>, fillcolor="#eeab7b"] ;
188 -> 190 ;
191 [label=<gini = 0.0<br/>samples = 3<br/>value = [3, 0, 0, 0, 0]>, fillcolor="#e58139"] ;
190 -> 191 ;
192 [label=<gini = 0.0<br/>samples = 1<br/>value = [0, 0, 0, 0, 1]>, fillcolor="#e539c0"] ;
190 -> 192 ;
193 [label=<gini = 0.0<br/>samples = 4<br/>value = [4, 0, 0, 0, 0]>, fillcolor="#e58139"] ;
187 -> 193 ;
194 [label=<gini = 0.0<br/>samples = 3<br/>value = [0, 0, 0, 0, 3]>, fillcolor="#e539c0"] ;
186 -> 194 ;
195 [label=<gini = 0.0<br/>samples = 5<br/>value = [5, 0, 0, 0, 0]>, fillcolor="#e58139"] ;
185 -> 195 ;
196 [label=<x<SUB>4</SUB> &le; -1.644<br/>gini = 0.278<br/>samples = 6<br/>value = [1, 0, 0, 0, 5]>, fillcolor="#ea61cd"] ;
184 -> 196 ;
197 [label=<gini = 0.0<br/>samples = 5<br/>value = [0, 0, 0, 0, 5]>, fillcolor="#e539c0"] ;
196 -> 197 ;
198 [label=<gini = 0.0<br/>samples = 1<br/>value = [1, 0, 0, 0, 0]>, fillcolor="#e58139"] ;
196 -> 198 ;
199 [label=<gini = 0.0<br/>samples = 5<br/>value = [5, 0, 0, 0, 0]>, fillcolor="#e58139"] ;
183 -> 199 ;
200 [label=<x<SUB>1</SUB> &le; -2.327<br/>gini = 0.375<br/>samples = 8<br/>value = [2, 0, 0, 0, 6]>, fillcolor="#ee7bd5"] ;
182 -> 200 ;
201 [label=<gini = 0.0<br/>samples = 5<br/>value = [0, 0, 0, 0, 5]>, fillcolor="#e539c0"] ;
200 -> 201 ;
202 [label=<x<SUB>2</SUB> &le; -0.242<br/>gini = 0.444<br/>samples = 3<br/>value = [2, 0, 0, 0, 1]>, fillcolor="#f2c09c"] ;
200 -> 202 ;
203 [label=<gini = 0.0<br/>samples = 2<br/>value = [2, 0, 0, 0, 0]>, fillcolor="#e58139"] ;
202 -> 203 ;
204 [label=<gini = 0.0<br/>samples = 1<br/>value = [0, 0, 0, 0, 1]>, fillcolor="#e539c0"] ;
202 -> 204 ;
205 [label=<gini = 0.0<br/>samples = 4<br/>value = [4, 0, 0, 0, 0]>, fillcolor="#e58139"] ;
179 -> 205 ;
206 [label=<x<SUB>4</SUB> &le; -1.522<br/>gini = 0.013<br/>samples = 150<br/>value = [1, 0, 0, 0, 149]>, fillcolor="#e53ac0"] ;
38 -> 206 ;
207 [label=<gini = 0.0<br/>samples = 149<br/>value = [0, 0, 0, 0, 149]>, fillcolor="#e539c0"] ;
206 -> 207 ;
208 [label=<gini = 0.0<br/>samples = 1<br/>value = [1, 0, 0, 0, 0]>, fillcolor="#e58139"] ;
206 -> 208 ;
209 [label=<x<SUB>5</SUB> &le; -0.42<br/>gini = 0.293<br/>samples = 5898<br/>value = [1052, 0, 0, 0, 4846]>, fillcolor="#eb64ce"] ;
37 -> 209 ;
210 [label=<x<SUB>3</SUB> &le; -2.066<br/>gini = 0.383<br/>samples = 523<br/>value = [388, 0, 0, 0, 135]>, fillcolor="#eead7e"] ;
209 -> 210 ;
211 [label=<x<SUB>6</SUB> &le; -0.115<br/>gini = 0.054<br/>samples = 397<br/>value = [386, 0, 0, 0, 11]>, fillcolor="#e6853f"] ;
210 -> 211 ;
212 [label=<x<SUB>3</SUB> &le; -2.178<br/>gini = 0.346<br/>samples = 9<br/>value = [2, 0, 0, 0, 7]>, fillcolor="#ec72d2"] ;
211 -> 212 ;
213 [label=<gini = 0.0<br/>samples = 2<br/>value = [2, 0, 0, 0, 0]>, fillcolor="#e58139"] ;
212 -> 213 ;
214 [label=<gini = 0.0<br/>samples = 7<br/>value = [0, 0, 0, 0, 7]>, fillcolor="#e539c0"] ;
212 -> 214 ;
215 [label=<x<SUB>0</SUB> &le; -1.741<br/>gini = 0.02<br/>samples = 388<br/>value = [384, 0, 0, 0, 4]>, fillcolor="#e5823b"] ;
211 -> 215 ;
216 [label=<gini = 0.0<br/>samples = 2<br/>value = [0, 0, 0, 0, 2]>, fillcolor="#e539c0"] ;
215 -> 216 ;
217 [label=<x<SUB>3</SUB> &le; -2.077<br/>gini = 0.01<br/>samples = 386<br/>value = [384, 0, 0, 0, 2]>, fillcolor="#e5823a"] ;
215 -> 217 ;
218 [label=<gini = 0.0<br/>samples = 380<br/>value = [380, 0, 0, 0, 0]>, fillcolor="#e58139"] ;
217 -> 218 ;
219 [label=<x<SUB>5</SUB> &le; -3.976<br/>gini = 0.444<br/>samples = 6<br/>value = [4, 0, 0, 0, 2]>, fillcolor="#f2c09c"] ;
217 -> 219 ;
220 [label=<gini = 0.0<br/>samples = 4<br/>value = [4, 0, 0, 0, 0]>, fillcolor="#e58139"] ;
219 -> 220 ;
221 [label=<gini = 0.0<br/>samples = 2<br/>value = [0, 0, 0, 0, 2]>, fillcolor="#e539c0"] ;
219 -> 221 ;
222 [label=<x<SUB>5</SUB> &le; -4.562<br/>gini = 0.031<br/>samples = 126<br/>value = [2, 0, 0, 0, 124]>, fillcolor="#e53cc1"] ;
210 -> 222 ;
223 [label=<gini = 0.0<br/>samples = 1<br/>value = [1, 0, 0, 0, 0]>, fillcolor="#e58139"] ;
222 -> 223 ;
224 [label=<x<SUB>3</SUB> &le; -2.058<br/>gini = 0.016<br/>samples = 125<br/>value = [1, 0, 0, 0, 124]>, fillcolor="#e53bc1"] ;
222 -> 224 ;
225 [label=<x<SUB>3</SUB> &le; -2.06<br/>gini = 0.278<br/>samples = 6<br/>value = [1, 0, 0, 0, 5]>, fillcolor="#ea61cd"] ;
224 -> 225 ;
226 [label=<gini = 0.0<br/>samples = 5<br/>value = [0, 0, 0, 0, 5]>, fillcolor="#e539c0"] ;
225 -> 226 ;
227 [label=<gini = 0.0<br/>samples = 1<br/>value = [1, 0, 0, 0, 0]>, fillcolor="#e58139"] ;
225 -> 227 ;
228 [label=<gini = 0.0<br/>samples = 119<br/>value = [0, 0, 0, 0, 119]>, fillcolor="#e539c0"] ;
224 -> 228 ;
229 [label=<x<SUB>2</SUB> &le; -0.565<br/>gini = 0.217<br/>samples = 5375<br/>value = [664, 0, 0, 0, 4711]>, fillcolor="#e955c9"] ;
209 -> 229 ;
230 [label=<x<SUB>4</SUB> &le; -1.544<br/>gini = 0.097<br/>samples = 4238<br/>value = [216, 0, 0, 0, 4022]>, fillcolor="#e644c3"] ;
229 -> 230 ;
231 [label=<x<SUB>3</SUB> &le; -2.238<br/>gini = 0.077<br/>samples = 4177<br/>value = [168, 0, 0, 0, 4009]>, fillcolor="#e641c3"] ;
230 -> 231 ;
232 [label=<x<SUB>5</SUB> &le; 2.934<br/>gini = 0.488<br/>samples = 177<br/>value = [75, 0, 0, 0, 102]>, fillcolor="#f8cbee"] ;
231 -> 232 ;
233 [label=<x<SUB>4</SUB> &le; -1.88<br/>gini = 0.422<br/>samples = 96<br/>value = [67, 0, 0, 0, 29]>, fillcolor="#f0b88f"] ;
232 -> 233 ;
234 [label=<x<SUB>6</SUB> &le; 1.988<br/>gini = 0.236<br/>samples = 22<br/>value = [3, 0, 0, 0, 19]>, fillcolor="#e958ca"] ;
233 -> 234 ;
235 [label=<x<SUB>1</SUB> &le; -1.651<br/>gini = 0.444<br/>samples = 3<br/>value = [2, 0, 0, 0, 1]>, fillcolor="#f2c09c"] ;
234 -> 235 ;
236 [label=<gini = 0.0<br/>samples = 2<br/>value = [2, 0, 0, 0, 0]>, fillcolor="#e58139"] ;
235 -> 236 ;
237 [label=<gini = 0.0<br/>samples = 1<br/>value = [0, 0, 0, 0, 1]>, fillcolor="#e539c0"] ;
235 -> 237 ;
238 [label=<x<SUB>2</SUB> &le; -2.913<br/>gini = 0.1<br/>samples = 19<br/>value = [1, 0, 0, 0, 18]>, fillcolor="#e644c4"] ;
234 -> 238 ;
239 [label=<gini = 0.0<br/>samples = 1<br/>value = [1, 0, 0, 0, 0]>, fillcolor="#e58139"] ;
238 -> 239 ;
240 [label=<gini = 0.0<br/>samples = 18<br/>value = [0, 0, 0, 0, 18]>, fillcolor="#e539c0"] ;
238 -> 240 ;
241 [label=<x<SUB>5</SUB> &le; 2.791<br/>gini = 0.234<br/>samples = 74<br/>value = [64, 0, 0, 0, 10]>, fillcolor="#e99558"] ;
233 -> 241 ;
242 [label=<gini = 0.0<br/>samples = 41<br/>value = [41, 0, 0, 0, 0]>, fillcolor="#e58139"] ;
241 -> 242 ;
243 [label=<x<SUB>3</SUB> &le; -2.239<br/>gini = 0.422<br/>samples = 33<br/>value = [23, 0, 0, 0, 10]>, fillcolor="#f0b88f"] ;
241 -> 243 ;
244 [label=<gini = 0.0<br/>samples = 18<br/>value = [18, 0, 0, 0, 0]>, fillcolor="#e58139"] ;
243 -> 244 ;
245 [label=<x<SUB>4</SUB> &le; -1.879<br/>gini = 0.444<br/>samples = 15<br/>value = [5, 0, 0, 0, 10]>, fillcolor="#f29ce0"] ;
243 -> 245 ;
246 [label=<gini = 0.0<br/>samples = 6<br/>value = [0, 0, 0, 0, 6]>, fillcolor="#e539c0"] ;
245 -> 246 ;
247 [label=<x<SUB>3</SUB> &le; -2.238<br/>gini = 0.494<br/>samples = 9<br/>value = [5, 0, 0, 0, 4]>, fillcolor="#fae6d7"] ;
245 -> 247 ;
248 [label=<x<SUB>3</SUB> &le; -2.239<br/>gini = 0.278<br/>samples = 6<br/>value = [5, 0, 0, 0, 1]>, fillcolor="#ea9a61"] ;
247 -> 248 ;
249 [label=<gini = 0.0<br/>samples = 1<br/>value = [0, 0, 0, 0, 1]>, fillcolor="#e539c0"] ;
248 -> 249 ;
250 [label=<gini = 0.0<br/>samples = 5<br/>value = [5, 0, 0, 0, 0]>, fillcolor="#e58139"] ;
248 -> 250 ;
251 [label=<gini = 0.0<br/>samples = 3<br/>value = [0, 0, 0, 0, 3]>, fillcolor="#e539c0"] ;
247 -> 251 ;
252 [label=<x<SUB>4</SUB> &le; -1.877<br/>gini = 0.178<br/>samples = 81<br/>value = [8, 0, 0, 0, 73]>, fillcolor="#e84fc7"] ;
232 -> 252 ;
253 [label=<x<SUB>1</SUB> &le; -1.603<br/>gini = 0.078<br/>samples = 74<br/>value = [3, 0, 0, 0, 71]>, fillcolor="#e641c3"] ;
252 -> 253 ;
254 [label=<x<SUB>6</SUB> &le; 2.205<br/>gini = 0.48<br/>samples = 5<br/>value = [3, 0, 0, 0, 2]>, fillcolor="#f6d5bd"] ;
253 -> 254 ;
255 [label=<gini = 0.0<br/>samples = 3<br/>value = [3, 0, 0, 0, 0]>, fillcolor="#e58139"] ;
254 -> 255 ;
256 [label=<gini = 0.0<br/>samples = 2<br/>value = [0, 0, 0, 0, 2]>, fillcolor="#e539c0"] ;
254 -> 256 ;
257 [label=<gini = 0.0<br/>samples = 69<br/>value = [0, 0, 0, 0, 69]>, fillcolor="#e539c0"] ;
253 -> 257 ;
258 [label=<x<SUB>5</SUB> &le; 3.158<br/>gini = 0.408<br/>samples = 7<br/>value = [5, 0, 0, 0, 2]>, fillcolor="#efb388"] ;
252 -> 258 ;
259 [label=<gini = 0.0<br/>samples = 5<br/>value = [5, 0, 0, 0, 0]>, fillcolor="#e58139"] ;
258 -> 259 ;
260 [label=<gini = 0.0<br/>samples = 2<br/>value = [0, 0, 0, 0, 2]>, fillcolor="#e539c0"] ;
258 -> 260 ;
261 [label=<x<SUB>1</SUB> &le; -0.19<br/>gini = 0.045<br/>samples = 4000<br/>value = [93, 0, 0, 0, 3907]>, fillcolor="#e63ec1"] ;
231 -> 261 ;
262 [label=<x<SUB>5</SUB> &le; -0.063<br/>gini = 0.036<br/>samples = 3980<br/>value = [74, 0, 0, 0, 3906]>, fillcolor="#e53dc1"] ;
261 -> 262 ;
263 [label=<x<SUB>3</SUB> &le; -2.176<br/>gini = 0.469<br/>samples = 48<br/>value = [18, 0, 0, 0, 30]>, fillcolor="#f5b0e6"] ;
262 -> 263 ;
264 [label=<gini = 0.0<br/>samples = 18<br/>value = [18, 0, 0, 0, 0]>, fillcolor="#e58139"] ;
263 -> 264 ;
265 [label=<gini = 0.0<br/>samples = 30<br/>value = [0, 0, 0, 0, 30]>, fillcolor="#e539c0"] ;
263 -> 265 ;
266 [label=<x<SUB>3</SUB> &le; -2.186<br/>gini = 0.028<br/>samples = 3932<br/>value = [56, 0, 0, 0, 3876]>, fillcolor="#e53cc1"] ;
262 -> 266 ;
267 [label=<x<SUB>5</SUB> &le; 1.38<br/>gini = 0.106<br/>samples = 943<br/>value = [53, 0, 0, 0, 890]>, fillcolor="#e745c4"] ;
266 -> 267 ;
268 [label=<x<SUB>1</SUB> &le; -1.763<br/>gini = 0.365<br/>samples = 25<br/>value = [19, 0, 0, 0, 6]>, fillcolor="#eda978"] ;
267 -> 268 ;
269 [label=<gini = 0.0<br/>samples = 6<br/>value = [0, 0, 0, 0, 6]>, fillcolor="#e539c0"] ;
268 -> 269 ;
270 [label=<gini = 0.0<br/>samples = 19<br/>value = [19, 0, 0, 0, 0]>, fillcolor="#e58139"] ;
268 -> 270 ;
271 [label=<x<SUB>2</SUB> &le; -0.98<br/>gini = 0.071<br/>samples = 918<br/>value = [34, 0, 0, 0, 884]>, fillcolor="#e641c2"] ;
267 -> 271 ;
272 [label=<x<SUB>1</SUB> &le; -2.264<br/>gini = 0.064<br/>samples = 912<br/>value = [30, 0, 0, 0, 882]>, fillcolor="#e640c2"] ;
271 -> 272 ;
273 [label=<x<SUB>4</SUB> &le; -1.846<br/>gini = 0.5<br/>samples = 6<br/>value = [3, 0, 0, 0, 3]>, fillcolor="#ffffff"] ;
272 -> 273 ;
274 [label=<gini = 0.0<br/>samples = 3<br/>value = [0, 0, 0, 0, 3]>, fillcolor="#e539c0"] ;
273 -> 274 ;
275 [label=<gini = 0.0<br/>samples = 3<br/>value = [3, 0, 0, 0, 0]>, fillcolor="#e58139"] ;
273 -> 275 ;
276 [label=<x<SUB>4</SUB> &le; -1.834<br/>gini = 0.058<br/>samples = 906<br/>value = [27, 0, 0, 0, 879]>, fillcolor="#e63fc2"] ;
272 -> 276 ;
277 [label=<x<SUB>6</SUB> &le; 2.025<br/>gini = 0.056<br/>samples = 905<br/>value = [26, 0, 0, 0, 879]>, fillcolor="#e63fc2"] ;
276 -> 277 ;
278 [label=<x<SUB>2</SUB> &le; -2.375<br/>gini = 0.113<br/>samples = 417<br/>value = [25, 0, 0, 0, 392]>, fillcolor="#e746c4"] ;
277 -> 278 ;
279 [label=<x<SUB>0</SUB> &le; -1.093<br/>gini = 0.471<br/>samples = 29<br/>value = [11, 0, 0, 0, 18]>, fillcolor="#f5b2e6"] ;
278 -> 279 ;
280 [label=<x<SUB>1</SUB> &le; -1.648<br/>gini = 0.298<br/>samples = 22<br/>value = [4, 0, 0, 0, 18]>, fillcolor="#eb65ce"] ;
279 -> 280 ;
281 [label=<x<SUB>0</SUB> &le; -1.093<br/>gini = 0.375<br/>samples = 4<br/>value = [3, 0, 0, 0, 1]>, fillcolor="#eeab7b"] ;
280 -> 281 ;
282 [label=<gini = 0.0<br/>samples = 3<br/>value = [3, 0, 0, 0, 0]>, fillcolor="#e58139"] ;
281 -> 282 ;
283 [label=<gini = 0.0<br/>samples = 1<br/>value = [0, 0, 0, 0, 1]>, fillcolor="#e539c0"] ;
281 -> 283 ;
284 [label=<x<SUB>6</SUB> &le; 2.021<br/>gini = 0.105<br/>samples = 18<br/>value = [1, 0, 0, 0, 17]>, fillcolor="#e745c4"] ;
280 -> 284 ;
285 [label=<gini = 0.0<br/>samples = 17<br/>value = [0, 0, 0, 0, 17]>, fillcolor="#e539c0"] ;
284 -> 285 ;
286 [label=<gini = 0.0<br/>samples = 1<br/>value = [1, 0, 0, 0, 0]>, fillcolor="#e58139"] ;
284 -> 286 ;
287 [label=<gini = 0.0<br/>samples = 7<br/>value = [7, 0, 0, 0, 0]>, fillcolor="#e58139"] ;
279 -> 287 ;
288 [label=<x<SUB>3</SUB> &le; -2.197<br/>gini = 0.07<br/>samples = 388<br/>value = [14, 0, 0, 0, 374]>, fillcolor="#e640c2"] ;
278 -> 288 ;
289 [label=<x<SUB>4</SUB> &le; -1.842<br/>gini = 0.136<br/>samples = 177<br/>value = [13, 0, 0, 0, 164]>, fillcolor="#e749c5"] ;
288 -> 289 ;
290 [label=<x<SUB>4</SUB> &le; -1.844<br/>gini = 0.099<br/>samples = 172<br/>value = [9, 0, 0, 0, 163]>, fillcolor="#e644c3"] ;
289 -> 290 ;
291 [label=<x<SUB>3</SUB> &le; -2.237<br/>gini = 0.072<br/>samples = 160<br/>value = [6, 0, 0, 0, 154]>, fillcolor="#e641c2"] ;
290 -> 291 ;
292 [label=<x<SUB>0</SUB> &le; -1.092<br/>gini = 0.5<br/>samples = 2<br/>value = [1, 0, 0, 0, 1]>, fillcolor="#ffffff"] ;
291 -> 292 ;
293 [label=<gini = 0.0<br/>samples = 1<br/>value = [1, 0, 0, 0, 0]>, fillcolor="#e58139"] ;
292 -> 293 ;
294 [label=<gini = 0.0<br/>samples = 1<br/>value = [0, 0, 0, 0, 1]>, fillcolor="#e539c0"] ;
292 -> 294 ;
295 [label=<x<SUB>5</SUB> &le; 2.298<br/>gini = 0.061<br/>samples = 158<br/>value = [5, 0, 0, 0, 153]>, fillcolor="#e63fc2"] ;
291 -> 295 ;
296 [label=<gini = 0.0<br/>samples = 85<br/>value = [0, 0, 0, 0, 85]>, fillcolor="#e539c0"] ;
295 -> 296 ;
297 [label=<x<SUB>6</SUB> &le; 1.807<br/>gini = 0.128<br/>samples = 73<br/>value = [5, 0, 0, 0, 68]>, fillcolor="#e748c5"] ;
295 -> 297 ;
298 [label=<gini = 0.0<br/>samples = 3<br/>value = [3, 0, 0, 0, 0]>, fillcolor="#e58139"] ;
297 -> 298 ;
299 [label=<x<SUB>4</SUB> &le; -1.877<br/>gini = 0.056<br/>samples = 70<br/>value = [2, 0, 0, 0, 68]>, fillcolor="#e63fc2"] ;
297 -> 299 ;
300 [label=<gini = 0.0<br/>samples = 53<br/>value = [0, 0, 0, 0, 53]>, fillcolor="#e539c0"] ;
299 -> 300 ;
301 [label=<x<SUB>6</SUB> &le; 1.928<br/>gini = 0.208<br/>samples = 17<br/>value = [2, 0, 0, 0, 15]>, fillcolor="#e853c8"] ;
299 -> 301 ;
302 [label=<gini = 0.0<br/>samples = 10<br/>value = [0, 0, 0, 0, 10]>, fillcolor="#e539c0"] ;
301 -> 302 ;
303 [label=<x<SUB>5</SUB> &le; 2.751<br/>gini = 0.408<br/>samples = 7<br/>value = [2, 0, 0, 0, 5]>, fillcolor="#ef88d9"] ;
301 -> 303 ;
304 [label=<gini = 0.0<br/>samples = 2<br/>value = [2, 0, 0, 0, 0]>, fillcolor="#e58139"] ;
303 -> 304 ;
305 [label=<gini = 0.0<br/>samples = 5<br/>value = [0, 0, 0, 0, 5]>, fillcolor="#e539c0"] ;
303 -> 305 ;
306 [label=<x<SUB>3</SUB> &le; -2.2<br/>gini = 0.375<br/>samples = 12<br/>value = [3, 0, 0, 0, 9]>, fillcolor="#ee7bd5"] ;
290 -> 306 ;
307 [label=<gini = 0.0<br/>samples = 3<br/>value = [3, 0, 0, 0, 0]>, fillcolor="#e58139"] ;
306 -> 307 ;
308 [label=<gini = 0.0<br/>samples = 9<br/>value = [0, 0, 0, 0, 9]>, fillcolor="#e539c0"] ;
306 -> 308 ;
309 [label=<x<SUB>6</SUB> &le; 1.022<br/>gini = 0.32<br/>samples = 5<br/>value = [4, 0, 0, 0, 1]>, fillcolor="#eca06a"] ;
289 -> 309 ;
310 [label=<gini = 0.0<br/>samples = 4<br/>value = [4, 0, 0, 0, 0]>, fillcolor="#e58139"] ;
309 -> 310 ;
311 [label=<gini = 0.0<br/>samples = 1<br/>value = [0, 0, 0, 0, 1]>, fillcolor="#e539c0"] ;
309 -> 311 ;
312 [label=<x<SUB>2</SUB> &le; -0.99<br/>gini = 0.009<br/>samples = 211<br/>value = [1, 0, 0, 0, 210]>, fillcolor="#e53ac0"] ;
288 -> 312 ;
313 [label=<gini = 0.0<br/>samples = 203<br/>value = [0, 0, 0, 0, 203]>, fillcolor="#e539c0"] ;
312 -> 313 ;
314 [label=<x<SUB>4</SUB> &le; -1.84<br/>gini = 0.219<br/>samples = 8<br/>value = [1, 0, 0, 0, 7]>, fillcolor="#e955c9"] ;
312 -> 314 ;
315 [label=<gini = 0.0<br/>samples = 7<br/>value = [0, 0, 0, 0, 7]>, fillcolor="#e539c0"] ;
314 -> 315 ;
316 [label=<gini = 0.0<br/>samples = 1<br/>value = [1, 0, 0, 0, 0]>, fillcolor="#e58139"] ;
314 -> 316 ;
317 [label=<x<SUB>0</SUB> &le; -1.757<br/>gini = 0.004<br/>samples = 488<br/>value = [1, 0, 0, 0, 487]>, fillcolor="#e539c0"] ;
277 -> 317 ;
318 [label=<x<SUB>2</SUB> &le; -2.889<br/>gini = 0.219<br/>samples = 8<br/>value = [1, 0, 0, 0, 7]>, fillcolor="#e955c9"] ;
317 -> 318 ;
319 [label=<gini = 0.0<br/>samples = 7<br/>value = [0, 0, 0, 0, 7]>, fillcolor="#e539c0"] ;
318 -> 319 ;
320 [label=<gini = 0.0<br/>samples = 1<br/>value = [1, 0, 0, 0, 0]>, fillcolor="#e58139"] ;
318 -> 320 ;
321 [label=<gini = 0.0<br/>samples = 480<br/>value = [0, 0, 0, 0, 480]>, fillcolor="#e539c0"] ;
317 -> 321 ;
322 [label=<gini = 0.0<br/>samples = 1<br/>value = [1, 0, 0, 0, 0]>, fillcolor="#e58139"] ;
276 -> 322 ;
323 [label=<x<SUB>3</SUB> &le; -2.194<br/>gini = 0.444<br/>samples = 6<br/>value = [4, 0, 0, 0, 2]>, fillcolor="#f2c09c"] ;
271 -> 323 ;
324 [label=<gini = 0.0<br/>samples = 4<br/>value = [4, 0, 0, 0, 0]>, fillcolor="#e58139"] ;
323 -> 324 ;
325 [label=<gini = 0.0<br/>samples = 2<br/>value = [0, 0, 0, 0, 2]>, fillcolor="#e539c0"] ;
323 -> 325 ;
326 [label=<x<SUB>1</SUB> &le; -2.287<br/>gini = 0.002<br/>samples = 2989<br/>value = [3, 0, 0, 0, 2986]>, fillcolor="#e539c0"] ;
266 -> 326 ;
327 [label=<x<SUB>5</SUB> &le; 1.928<br/>gini = 0.219<br/>samples = 8<br/>value = [1, 0, 0, 0, 7]>, fillcolor="#e955c9"] ;
326 -> 327 ;
328 [label=<gini = 0.0<br/>samples = 7<br/>value = [0, 0, 0, 0, 7]>, fillcolor="#e539c0"] ;
327 -> 328 ;
329 [label=<gini = 0.0<br/>samples = 1<br/>value = [1, 0, 0, 0, 0]>, fillcolor="#e58139"] ;
327 -> 329 ;
330 [label=<x<SUB>4</SUB> &le; -1.608<br/>gini = 0.001<br/>samples = 2981<br/>value = [2, 0, 0, 0, 2979]>, fillcolor="#e539c0"] ;
326 -> 330 ;
331 [label=<gini = 0.0<br/>samples = 2869<br/>value = [0, 0, 0, 0, 2869]>, fillcolor="#e539c0"] ;
330 -> 331 ;
332 [label=<x<SUB>3</SUB> &le; -1.951<br/>gini = 0.035<br/>samples = 112<br/>value = [2, 0, 0, 0, 110]>, fillcolor="#e53dc1"] ;
330 -> 332 ;
333 [label=<gini = 0.0<br/>samples = 2<br/>value = [2, 0, 0, 0, 0]>, fillcolor="#e58139"] ;
332 -> 333 ;
334 [label=<gini = 0.0<br/>samples = 110<br/>value = [0, 0, 0, 0, 110]>, fillcolor="#e539c0"] ;
332 -> 334 ;
335 [label=<x<SUB>4</SUB> &le; -1.697<br/>gini = 0.095<br/>samples = 20<br/>value = [19, 0, 0, 0, 1]>, fillcolor="#e68843"] ;
261 -> 335 ;
336 [label=<gini = 0.0<br/>samples = 19<br/>value = [19, 0, 0, 0, 0]>, fillcolor="#e58139"] ;
335 -> 336 ;
337 [label=<gini = 0.0<br/>samples = 1<br/>value = [0, 0, 0, 0, 1]>, fillcolor="#e539c0"] ;
335 -> 337 ;
338 [label=<x<SUB>2</SUB> &le; -2.315<br/>gini = 0.335<br/>samples = 61<br/>value = [48, 0, 0, 0, 13]>, fillcolor="#eca36f"] ;
230 -> 338 ;
339 [label=<x<SUB>5</SUB> &le; 0.997<br/>gini = 0.085<br/>samples = 45<br/>value = [43, 0, 0, 0, 2]>, fillcolor="#e68742"] ;
338 -> 339 ;
340 [label=<x<SUB>2</SUB> &le; -2.402<br/>gini = 0.444<br/>samples = 6<br/>value = [4, 0, 0, 0, 2]>, fillcolor="#f2c09c"] ;
339 -> 340 ;
341 [label=<gini = 0.0<br/>samples = 4<br/>value = [4, 0, 0, 0, 0]>, fillcolor="#e58139"] ;
340 -> 341 ;
342 [label=<gini = 0.0<br/>samples = 2<br/>value = [0, 0, 0, 0, 2]>, fillcolor="#e539c0"] ;
340 -> 342 ;
343 [label=<gini = 0.0<br/>samples = 39<br/>value = [39, 0, 0, 0, 0]>, fillcolor="#e58139"] ;
339 -> 343 ;
344 [label=<x<SUB>1</SUB> &le; -1.959<br/>gini = 0.43<br/>samples = 16<br/>value = [5, 0, 0, 0, 11]>, fillcolor="#f193dd"] ;
338 -> 344 ;
345 [label=<gini = 0.0<br/>samples = 11<br/>value = [0, 0, 0, 0, 11]>, fillcolor="#e539c0"] ;
344 -> 345 ;
346 [label=<gini = 0.0<br/>samples = 5<br/>value = [5, 0, 0, 0, 0]>, fillcolor="#e58139"] ;
344 -> 346 ;
347 [label=<x<SUB>3</SUB> &le; -2.17<br/>gini = 0.478<br/>samples = 1137<br/>value = [448, 0, 0, 0, 689]>, fillcolor="#f6bae9"] ;
229 -> 347 ;
348 [label=<x<SUB>2</SUB> &le; -0.527<br/>gini = 0.058<br/>samples = 405<br/>value = [393, 0, 0, 0, 12]>, fillcolor="#e6853f"] ;
347 -> 348 ;
349 [label=<x<SUB>4</SUB> &le; -1.827<br/>gini = 0.242<br/>samples = 71<br/>value = [61, 0, 0, 0, 10]>, fillcolor="#e99659"] ;
348 -> 349 ;
350 [label=<x<SUB>3</SUB> &le; -2.175<br/>gini = 0.492<br/>samples = 16<br/>value = [7, 0, 0, 0, 9]>, fillcolor="#f9d3f1"] ;
349 -> 350 ;
351 [label=<gini = 0.0<br/>samples = 6<br/>value = [6, 0, 0, 0, 0]>, fillcolor="#e58139"] ;
350 -> 351 ;
352 [label=<x<SUB>5</SUB> &le; 0.652<br/>gini = 0.18<br/>samples = 10<br/>value = [1, 0, 0, 0, 9]>, fillcolor="#e84fc7"] ;
350 -> 352 ;
353 [label=<gini = 0.0<br/>samples = 1<br/>value = [1, 0, 0, 0, 0]>, fillcolor="#e58139"] ;
352 -> 353 ;
354 [label=<gini = 0.0<br/>samples = 9<br/>value = [0, 0, 0, 0, 9]>, fillcolor="#e539c0"] ;
352 -> 354 ;
355 [label=<x<SUB>4</SUB> &le; -1.827<br/>gini = 0.036<br/>samples = 55<br/>value = [54, 0, 0, 0, 1]>, fillcolor="#e5833d"] ;
349 -> 355 ;
356 [label=<x<SUB>5</SUB> &le; 0.836<br/>gini = 0.153<br/>samples = 12<br/>value = [11, 0, 0, 0, 1]>, fillcolor="#e78c4b"] ;
355 -> 356 ;
357 [label=<gini = 0.0<br/>samples = 10<br/>value = [10, 0, 0, 0, 0]>, fillcolor="#e58139"] ;
356 -> 357 ;
358 [label=<x<SUB>3</SUB> &le; -2.18<br/>gini = 0.5<br/>samples = 2<br/>value = [1, 0, 0, 0, 1]>, fillcolor="#ffffff"] ;
356 -> 358 ;
359 [label=<gini = 0.0<br/>samples = 1<br/>value = [1, 0, 0, 0, 0]>, fillcolor="#e58139"] ;
358 -> 359 ;
360 [label=<gini = 0.0<br/>samples = 1<br/>value = [0, 0, 0, 0, 1]>, fillcolor="#e539c0"] ;
358 -> 360 ;
361 [label=<gini = 0.0<br/>samples = 43<br/>value = [43, 0, 0, 0, 0]>, fillcolor="#e58139"] ;
355 -> 361 ;
362 [label=<x<SUB>4</SUB> &le; -1.82<br/>gini = 0.012<br/>samples = 334<br/>value = [332, 0, 0, 0, 2]>, fillcolor="#e5823a"] ;
348 -> 362 ;
363 [label=<x<SUB>3</SUB> &le; -2.171<br/>gini = 0.006<br/>samples = 333<br/>value = [332, 0, 0, 0, 1]>, fillcolor="#e5813a"] ;
362 -> 363 ;
364 [label=<gini = 0.0<br/>samples = 326<br/>value = [326, 0, 0, 0, 0]>, fillcolor="#e58139"] ;
363 -> 364 ;
365 [label=<x<SUB>4</SUB> &le; -1.826<br/>gini = 0.245<br/>samples = 7<br/>value = [6, 0, 0, 0, 1]>, fillcolor="#e9965a"] ;
363 -> 365 ;
366 [label=<gini = 0.0<br/>samples = 1<br/>value = [0, 0, 0, 0, 1]>, fillcolor="#e539c0"] ;
365 -> 366 ;
367 [label=<gini = 0.0<br/>samples = 6<br/>value = [6, 0, 0, 0, 0]>, fillcolor="#e58139"] ;
365 -> 367 ;
368 [label=<gini = 0.0<br/>samples = 1<br/>value = [0, 0, 0, 0, 1]>, fillcolor="#e539c0"] ;
362 -> 368 ;
369 [label=<x<SUB>3</SUB> &le; -1.969<br/>gini = 0.139<br/>samples = 732<br/>value = [55, 0, 0, 0, 677]>, fillcolor="#e749c5"] ;
347 -> 369 ;
370 [label=<x<SUB>1</SUB> &le; -1.963<br/>gini = 0.354<br/>samples = 231<br/>value = [53, 0, 0, 0, 178]>, fillcolor="#ed74d3"] ;
369 -> 370 ;
371 [label=<x<SUB>3</SUB> &le; -1.973<br/>gini = 0.459<br/>samples = 42<br/>value = [27, 0, 0, 0, 15]>, fillcolor="#f3c7a7"] ;
370 -> 371 ;
372 [label=<x<SUB>4</SUB> &le; -1.826<br/>gini = 0.105<br/>samples = 18<br/>value = [17, 0, 0, 0, 1]>, fillcolor="#e78845"] ;
371 -> 372 ;
373 [label=<x<SUB>1</SUB> &le; -1.967<br/>gini = 0.5<br/>samples = 2<br/>value = [1, 0, 0, 0, 1]>, fillcolor="#ffffff"] ;
372 -> 373 ;
374 [label=<gini = 0.0<br/>samples = 1<br/>value = [0, 0, 0, 0, 1]>, fillcolor="#e539c0"] ;
373 -> 374 ;
375 [label=<gini = 0.0<br/>samples = 1<br/>value = [1, 0, 0, 0, 0]>, fillcolor="#e58139"] ;
373 -> 375 ;
376 [label=<gini = 0.0<br/>samples = 16<br/>value = [16, 0, 0, 0, 0]>, fillcolor="#e58139"] ;
372 -> 376 ;
377 [label=<x<SUB>5</SUB> &le; -0.015<br/>gini = 0.486<br/>samples = 24<br/>value = [10, 0, 0, 0, 14]>, fillcolor="#f8c6ed"] ;
371 -> 377 ;
378 [label=<x<SUB>6</SUB> &le; -0.346<br/>gini = 0.219<br/>samples = 8<br/>value = [7, 0, 0, 0, 1]>, fillcolor="#e99355"] ;
377 -> 378 ;
379 [label=<x<SUB>6</SUB> &le; -0.35<br/>gini = 0.5<br/>samples = 2<br/>value = [1, 0, 0, 0, 1]>, fillcolor="#ffffff"] ;
378 -> 379 ;
380 [label=<gini = 0.0<br/>samples = 1<br/>value = [1, 0, 0, 0, 0]>, fillcolor="#e58139"] ;
379 -> 380 ;
381 [label=<gini = 0.0<br/>samples = 1<br/>value = [0, 0, 0, 0, 1]>, fillcolor="#e539c0"] ;
379 -> 381 ;
382 [label=<gini = 0.0<br/>samples = 6<br/>value = [6, 0, 0, 0, 0]>, fillcolor="#e58139"] ;
378 -> 382 ;
383 [label=<x<SUB>6</SUB> &le; -0.277<br/>gini = 0.305<br/>samples = 16<br/>value = [3, 0, 0, 0, 13]>, fillcolor="#eb67cf"] ;
377 -> 383 ;
384 [label=<gini = 0.0<br/>samples = 7<br/>value = [0, 0, 0, 0, 7]>, fillcolor="#e539c0"] ;
383 -> 384 ;
385 [label=<x<SUB>4</SUB> &le; -1.641<br/>gini = 0.444<br/>samples = 9<br/>value = [3, 0, 0, 0, 6]>, fillcolor="#f29ce0"] ;
383 -> 385 ;
386 [label=<x<SUB>6</SUB> &le; -0.273<br/>gini = 0.245<br/>samples = 7<br/>value = [1, 0, 0, 0, 6]>, fillcolor="#e95acb"] ;
385 -> 386 ;
387 [label=<gini = 0.0<br/>samples = 1<br/>value = [1, 0, 0, 0, 0]>, fillcolor="#e58139"] ;
386 -> 387 ;
388 [label=<gini = 0.0<br/>samples = 6<br/>value = [0, 0, 0, 0, 6]>, fillcolor="#e539c0"] ;
386 -> 388 ;
389 [label=<gini = 0.0<br/>samples = 2<br/>value = [2, 0, 0, 0, 0]>, fillcolor="#e58139"] ;
385 -> 389 ;
390 [label=<x<SUB>3</SUB> &le; -2.145<br/>gini = 0.237<br/>samples = 189<br/>value = [26, 0, 0, 0, 163]>, fillcolor="#e959ca"] ;
370 -> 390 ;
391 [label=<x<SUB>0</SUB> &le; -0.563<br/>gini = 0.313<br/>samples = 134<br/>value = [26, 0, 0, 0, 108]>, fillcolor="#eb69cf"] ;
390 -> 391 ;
392 [label=<x<SUB>4</SUB> &le; -1.82<br/>gini = 0.219<br/>samples = 16<br/>value = [14, 0, 0, 0, 2]>, fillcolor="#e99355"] ;
391 -> 392 ;
393 [label=<x<SUB>6</SUB> &le; 0.396<br/>gini = 0.444<br/>samples = 3<br/>value = [1, 0, 0, 0, 2]>, fillcolor="#f29ce0"] ;
392 -> 393 ;
394 [label=<gini = 0.0<br/>samples = 2<br/>value = [0, 0, 0, 0, 2]>, fillcolor="#e539c0"] ;
393 -> 394 ;
395 [label=<gini = 0.0<br/>samples = 1<br/>value = [1, 0, 0, 0, 0]>, fillcolor="#e58139"] ;
393 -> 395 ;
396 [label=<gini = 0.0<br/>samples = 13<br/>value = [13, 0, 0, 0, 0]>, fillcolor="#e58139"] ;
392 -> 396 ;
397 [label=<x<SUB>4</SUB> &le; -1.818<br/>gini = 0.183<br/>samples = 118<br/>value = [12, 0, 0, 0, 106]>, fillcolor="#e84fc7"] ;
391 -> 397 ;
398 [label=<x<SUB>6</SUB> &le; 0.125<br/>gini = 0.099<br/>samples = 96<br/>value = [5, 0, 0, 0, 91]>, fillcolor="#e644c3"] ;
397 -> 398 ;
399 [label=<x<SUB>2</SUB> &le; -0.471<br/>gini = 0.408<br/>samples = 7<br/>value = [2, 0, 0, 0, 5]>, fillcolor="#ef88d9"] ;
398 -> 399 ;
400 [label=<gini = 0.0<br/>samples = 4<br/>value = [0, 0, 0, 0, 4]>, fillcolor="#e539c0"] ;
399 -> 400 ;
401 [label=<x<SUB>4</SUB> &le; -1.82<br/>gini = 0.444<br/>samples = 3<br/>value = [2, 0, 0, 0, 1]>, fillcolor="#f2c09c"] ;
399 -> 401 ;
402 [label=<gini = 0.0<br/>samples = 1<br/>value = [0, 0, 0, 0, 1]>, fillcolor="#e539c0"] ;
401 -> 402 ;
403 [label=<gini = 0.0<br/>samples = 2<br/>value = [2, 0, 0, 0, 0]>, fillcolor="#e58139"] ;
401 -> 403 ;
404 [label=<x<SUB>5</SUB> &le; 0.013<br/>gini = 0.065<br/>samples = 89<br/>value = [3, 0, 0, 0, 86]>, fillcolor="#e640c2"] ;
398 -> 404 ;
405 [label=<x<SUB>0</SUB> &le; -0.563<br/>gini = 0.375<br/>samples = 4<br/>value = [1, 0, 0, 0, 3]>, fillcolor="#ee7bd5"] ;
404 -> 405 ;
406 [label=<gini = 0.0<br/>samples = 3<br/>value = [0, 0, 0, 0, 3]>, fillcolor="#e539c0"] ;
405 -> 406 ;
407 [label=<gini = 0.0<br/>samples = 1<br/>value = [1, 0, 0, 0, 0]>, fillcolor="#e58139"] ;
405 -> 407 ;
408 [label=<x<SUB>5</SUB> &le; 0.616<br/>gini = 0.046<br/>samples = 85<br/>value = [2, 0, 0, 0, 83]>, fillcolor="#e63ec2"] ;
404 -> 408 ;
409 [label=<x<SUB>5</SUB> &le; 0.616<br/>gini = 0.1<br/>samples = 38<br/>value = [2, 0, 0, 0, 36]>, fillcolor="#e644c4"] ;
408 -> 409 ;
410 [label=<x<SUB>0</SUB> &le; -0.563<br/>gini = 0.053<br/>samples = 37<br/>value = [1, 0, 0, 0, 36]>, fillcolor="#e63ec2"] ;
409 -> 410 ;
411 [label=<gini = 0.0<br/>samples = 33<br/>value = [0, 0, 0, 0, 33]>, fillcolor="#e539c0"] ;
410 -> 411 ;
412 [label=<x<SUB>0</SUB> &le; -0.563<br/>gini = 0.375<br/>samples = 4<br/>value = [1, 0, 0, 0, 3]>, fillcolor="#ee7bd5"] ;
410 -> 412 ;
413 [label=<gini = 0.0<br/>samples = 1<br/>value = [1, 0, 0, 0, 0]>, fillcolor="#e58139"] ;
412 -> 413 ;
414 [label=<gini = 0.0<br/>samples = 3<br/>value = [0, 0, 0, 0, 3]>, fillcolor="#e539c0"] ;
412 -> 414 ;
415 [label=<gini = 0.0<br/>samples = 1<br/>value = [1, 0, 0, 0, 0]>, fillcolor="#e58139"] ;
409 -> 415 ;
416 [label=<gini = 0.0<br/>samples = 47<br/>value = [0, 0, 0, 0, 47]>, fillcolor="#e539c0"] ;
408 -> 416 ;
417 [label=<x<SUB>6</SUB> &le; 0.161<br/>gini = 0.434<br/>samples = 22<br/>value = [7, 0, 0, 0, 15]>, fillcolor="#f195dd"] ;
397 -> 417 ;
418 [label=<gini = 0.0<br/>samples = 7<br/>value = [0, 0, 0, 0, 7]>, fillcolor="#e539c0"] ;
417 -> 418 ;
419 [label=<x<SUB>3</SUB> &le; -2.149<br/>gini = 0.498<br/>samples = 15<br/>value = [7, 0, 0, 0, 8]>, fillcolor="#fce6f7"] ;
417 -> 419 ;
420 [label=<x<SUB>4</SUB> &le; -1.817<br/>gini = 0.42<br/>samples = 10<br/>value = [7, 0, 0, 0, 3]>, fillcolor="#f0b78e"] ;
419 -> 420 ;
421 [label=<x<SUB>6</SUB> &le; 0.21<br/>gini = 0.245<br/>samples = 7<br/>value = [6, 0, 0, 0, 1]>, fillcolor="#e9965a"] ;
420 -> 421 ;
422 [label=<x<SUB>5</SUB> &le; 0.775<br/>gini = 0.5<br/>samples = 2<br/>value = [1, 0, 0, 0, 1]>, fillcolor="#ffffff"] ;
421 -> 422 ;
423 [label=<gini = 0.0<br/>samples = 1<br/>value = [0, 0, 0, 0, 1]>, fillcolor="#e539c0"] ;
422 -> 423 ;
424 [label=<gini = 0.0<br/>samples = 1<br/>value = [1, 0, 0, 0, 0]>, fillcolor="#e58139"] ;
422 -> 424 ;
425 [label=<gini = 0.0<br/>samples = 5<br/>value = [5, 0, 0, 0, 0]>, fillcolor="#e58139"] ;
421 -> 425 ;
426 [label=<x<SUB>1</SUB> &le; -1.914<br/>gini = 0.444<br/>samples = 3<br/>value = [1, 0, 0, 0, 2]>, fillcolor="#f29ce0"] ;
420 -> 426 ;
427 [label=<gini = 0.0<br/>samples = 2<br/>value = [0, 0, 0, 0, 2]>, fillcolor="#e539c0"] ;
426 -> 427 ;
428 [label=<gini = 0.0<br/>samples = 1<br/>value = [1, 0, 0, 0, 0]>, fillcolor="#e58139"] ;
426 -> 428 ;
429 [label=<gini = 0.0<br/>samples = 5<br/>value = [0, 0, 0, 0, 5]>, fillcolor="#e539c0"] ;
419 -> 429 ;
430 [label=<gini = 0.0<br/>samples = 55<br/>value = [0, 0, 0, 0, 55]>, fillcolor="#e539c0"] ;
390 -> 430 ;
431 [label=<x<SUB>1</SUB> &le; -2.257<br/>gini = 0.008<br/>samples = 501<br/>value = [2, 0, 0, 0, 499]>, fillcolor="#e53ac0"] ;
369 -> 431 ;
432 [label=<x<SUB>5</SUB> &le; -0.104<br/>gini = 0.444<br/>samples = 3<br/>value = [1, 0, 0, 0, 2]>, fillcolor="#f29ce0"] ;
431 -> 432 ;
433 [label=<gini = 0.0<br/>samples = 1<br/>value = [1, 0, 0, 0, 0]>, fillcolor="#e58139"] ;
432 -> 433 ;
434 [label=<gini = 0.0<br/>samples = 2<br/>value = [0, 0, 0, 0, 2]>, fillcolor="#e539c0"] ;
432 -> 434 ;
435 [label=<x<SUB>5</SUB> &le; -0.095<br/>gini = 0.004<br/>samples = 498<br/>value = [1, 0, 0, 0, 497]>, fillcolor="#e539c0"] ;
431 -> 435 ;
436 [label=<x<SUB>6</SUB> &le; -0.354<br/>gini = 0.117<br/>samples = 16<br/>value = [1, 0, 0, 0, 15]>, fillcolor="#e746c4"] ;
435 -> 436 ;
437 [label=<gini = 0.0<br/>samples = 15<br/>value = [0, 0, 0, 0, 15]>, fillcolor="#e539c0"] ;
436 -> 437 ;
438 [label=<gini = 0.0<br/>samples = 1<br/>value = [1, 0, 0, 0, 0]>, fillcolor="#e58139"] ;
436 -> 438 ;
439 [label=<gini = 0.0<br/>samples = 482<br/>value = [0, 0, 0, 0, 482]>, fillcolor="#e539c0"] ;
435 -> 439 ;
440 [label=<x<SUB>4</SUB> &le; -1.42<br/>gini = 0.239<br/>samples = 12145<br/>value = [10463, 0, 0, 0, 1682]>, fillcolor="#e99559"] ;
2 -> 440 ;
441 [label=<x<SUB>2</SUB> &le; -1.745<br/>gini = 0.194<br/>samples = 11741<br/>value = [10462, 0, 0, 0, 1279]>, fillcolor="#e89051"] ;
440 -> 441 ;
442 [label=<x<SUB>3</SUB> &le; -2.07<br/>gini = 0.04<br/>samples = 5056<br/>value = [4952, 0, 0, 0, 104]>, fillcolor="#e6843d"] ;
441 -> 442 ;
443 [label=<x<SUB>4</SUB> &le; -1.675<br/>gini = 0.016<br/>samples = 4993<br/>value = [4952, 0, 0, 0, 41]>, fillcolor="#e5823b"] ;
442 -> 443 ;
444 [label=<x<SUB>3</SUB> &le; -2.111<br/>gini = 0.013<br/>samples = 4984<br/>value = [4952, 0, 0, 0, 32]>, fillcolor="#e5823a"] ;
443 -> 444 ;
445 [label=<x<SUB>3</SUB> &le; -2.187<br/>gini = 0.006<br/>samples = 4926<br/>value = [4911, 0, 0, 0, 15]>, fillcolor="#e5813a"] ;
444 -> 445 ;
446 [label=<gini = 0.0<br/>samples = 4777<br/>value = [4777, 0, 0, 0, 0]>, fillcolor="#e58139"] ;
445 -> 446 ;
447 [label=<x<SUB>0</SUB> &le; 0.473<br/>gini = 0.181<br/>samples = 149<br/>value = [134, 0, 0, 0, 15]>, fillcolor="#e88f4f"] ;
445 -> 447 ;
448 [label=<gini = 0.0<br/>samples = 132<br/>value = [132, 0, 0, 0, 0]>, fillcolor="#e58139"] ;
447 -> 448 ;
449 [label=<x<SUB>2</SUB> &le; -2.403<br/>gini = 0.208<br/>samples = 17<br/>value = [2, 0, 0, 0, 15]>, fillcolor="#e853c8"] ;
447 -> 449 ;
450 [label=<gini = 0.0<br/>samples = 2<br/>value = [2, 0, 0, 0, 0]>, fillcolor="#e58139"] ;
449 -> 450 ;
451 [label=<gini = 0.0<br/>samples = 15<br/>value = [0, 0, 0, 0, 15]>, fillcolor="#e539c0"] ;
449 -> 451 ;
452 [label=<x<SUB>2</SUB> &le; -1.896<br/>gini = 0.414<br/>samples = 58<br/>value = [41, 0, 0, 0, 17]>, fillcolor="#f0b58b"] ;
444 -> 452 ;
453 [label=<gini = 0.0<br/>samples = 17<br/>value = [0, 0, 0, 0, 17]>, fillcolor="#e539c0"] ;
452 -> 453 ;
454 [label=<gini = 0.0<br/>samples = 41<br/>value = [41, 0, 0, 0, 0]>, fillcolor="#e58139"] ;
452 -> 454 ;
455 [label=<gini = 0.0<br/>samples = 9<br/>value = [0, 0, 0, 0, 9]>, fillcolor="#e539c0"] ;
443 -> 455 ;
456 [label=<gini = 0.0<br/>samples = 63<br/>value = [0, 0, 0, 0, 63]>, fillcolor="#e539c0"] ;
442 -> 456 ;
457 [label=<x<SUB>0</SUB> &le; 0.568<br/>gini = 0.29<br/>samples = 6685<br/>value = [5510, 0, 0, 0, 1175]>, fillcolor="#eb9c63"] ;
441 -> 457 ;
458 [label=<x<SUB>2</SUB> &le; -1.623<br/>gini = 0.184<br/>samples = 6096<br/>value = [5470, 0, 0, 0, 626]>, fillcolor="#e88f50"] ;
457 -> 458 ;
459 [label=<x<SUB>4</SUB> &le; -1.699<br/>gini = 0.35<br/>samples = 460<br/>value = [104, 0, 0, 0, 356]>, fillcolor="#ed73d2"] ;
458 -> 459 ;
460 [label=<x<SUB>6</SUB> &le; 0.008<br/>gini = 0.033<br/>samples = 361<br/>value = [6, 0, 0, 0, 355]>, fillcolor="#e53cc1"] ;
459 -> 460 ;
461 [label=<gini = 0.0<br/>samples = 4<br/>value = [4, 0, 0, 0, 0]>, fillcolor="#e58139"] ;
460 -> 461 ;
462 [label=<x<SUB>6</SUB> &le; 0.073<br/>gini = 0.011<br/>samples = 357<br/>value = [2, 0, 0, 0, 355]>, fillcolor="#e53ac0"] ;
460 -> 462 ;
463 [label=<x<SUB>1</SUB> &le; -2.421<br/>gini = 0.48<br/>samples = 5<br/>value = [2, 0, 0, 0, 3]>, fillcolor="#f6bdea"] ;
462 -> 463 ;
464 [label=<gini = 0.0<br/>samples = 2<br/>value = [2, 0, 0, 0, 0]>, fillcolor="#e58139"] ;
463 -> 464 ;
465 [label=<gini = 0.0<br/>samples = 3<br/>value = [0, 0, 0, 0, 3]>, fillcolor="#e539c0"] ;
463 -> 465 ;
466 [label=<gini = 0.0<br/>samples = 352<br/>value = [0, 0, 0, 0, 352]>, fillcolor="#e539c0"] ;
462 -> 466 ;
467 [label=<x<SUB>1</SUB> &le; -2.436<br/>gini = 0.02<br/>samples = 99<br/>value = [98, 0, 0, 0, 1]>, fillcolor="#e5823b"] ;
459 -> 467 ;
468 [label=<gini = 0.0<br/>samples = 98<br/>value = [98, 0, 0, 0, 0]>, fillcolor="#e58139"] ;
467 -> 468 ;
469 [label=<gini = 0.0<br/>samples = 1<br/>value = [0, 0, 0, 0, 1]>, fillcolor="#e539c0"] ;
467 -> 469 ;
470 [label=<x<SUB>0</SUB> &le; -0.113<br/>gini = 0.091<br/>samples = 5636<br/>value = [5366, 0, 0, 0, 270]>, fillcolor="#e68743"] ;
458 -> 470 ;
471 [label=<x<SUB>5</SUB> &le; 0.157<br/>gini = 0.407<br/>samples = 880<br/>value = [630, 0, 0, 0, 250]>, fillcolor="#efb388"] ;
470 -> 471 ;
472 [label=<x<SUB>6</SUB> &le; -0.07<br/>gini = 0.224<br/>samples = 691<br/>value = [602, 0, 0, 0, 89]>, fillcolor="#e99456"] ;
471 -> 472 ;
473 [label=<x<SUB>6</SUB> &le; -0.974<br/>gini = 0.158<br/>samples = 626<br/>value = [572, 0, 0, 0, 54]>, fillcolor="#e78d4c"] ;
472 -> 473 ;
474 [label=<x<SUB>5</SUB> &le; -0.78<br/>gini = 0.478<br/>samples = 43<br/>value = [17, 0, 0, 0, 26]>, fillcolor="#f6bae9"] ;
473 -> 474 ;
475 [label=<x<SUB>2</SUB> &le; -0.833<br/>gini = 0.266<br/>samples = 19<br/>value = [16, 0, 0, 0, 3]>, fillcolor="#ea995e"] ;
474 -> 475 ;
476 [label=<gini = 0.0<br/>samples = 3<br/>value = [0, 0, 0, 0, 3]>, fillcolor="#e539c0"] ;
475 -> 476 ;
477 [label=<gini = 0.0<br/>samples = 16<br/>value = [16, 0, 0, 0, 0]>, fillcolor="#e58139"] ;
475 -> 477 ;
478 [label=<x<SUB>3</SUB> &le; -1.864<br/>gini = 0.08<br/>samples = 24<br/>value = [1, 0, 0, 0, 23]>, fillcolor="#e642c3"] ;
474 -> 478 ;
479 [label=<gini = 0.0<br/>samples = 23<br/>value = [0, 0, 0, 0, 23]>, fillcolor="#e539c0"] ;
478 -> 479 ;
480 [label=<gini = 0.0<br/>samples = 1<br/>value = [1, 0, 0, 0, 0]>, fillcolor="#e58139"] ;
478 -> 480 ;
481 [label=<x<SUB>6</SUB> &le; -0.225<br/>gini = 0.091<br/>samples = 583<br/>value = [555, 0, 0, 0, 28]>, fillcolor="#e68743"] ;
473 -> 481 ;
482 [label=<x<SUB>3</SUB> &le; -1.859<br/>gini = 0.046<br/>samples = 514<br/>value = [502, 0, 0, 0, 12]>, fillcolor="#e6843e"] ;
481 -> 482 ;
483 [label=<x<SUB>6</SUB> &le; -0.277<br/>gini = 0.039<br/>samples = 509<br/>value = [499, 0, 0, 0, 10]>, fillcolor="#e6843d"] ;
482 -> 483 ;
484 [label=<x<SUB>3</SUB> &le; -1.91<br/>gini = 0.025<br/>samples = 473<br/>value = [467, 0, 0, 0, 6]>, fillcolor="#e5833c"] ;
483 -> 484 ;
485 [label=<gini = 0.0<br/>samples = 387<br/>value = [387, 0, 0, 0, 0]>, fillcolor="#e58139"] ;
484 -> 485 ;
486 [label=<x<SUB>2</SUB> &le; -0.488<br/>gini = 0.13<br/>samples = 86<br/>value = [80, 0, 0, 0, 6]>, fillcolor="#e78a48"] ;
484 -> 486 ;
487 [label=<gini = 0.0<br/>samples = 5<br/>value = [0, 0, 0, 0, 5]>, fillcolor="#e539c0"] ;
486 -> 487 ;
488 [label=<x<SUB>6</SUB> &le; -0.351<br/>gini = 0.024<br/>samples = 81<br/>value = [80, 0, 0, 0, 1]>, fillcolor="#e5833b"] ;
486 -> 488 ;
489 [label=<gini = 0.0<br/>samples = 80<br/>value = [80, 0, 0, 0, 0]>, fillcolor="#e58139"] ;
488 -> 489 ;
490 [label=<gini = 0.0<br/>samples = 1<br/>value = [0, 0, 0, 0, 1]>, fillcolor="#e539c0"] ;
488 -> 490 ;
491 [label=<x<SUB>5</SUB> &le; 0.071<br/>gini = 0.198<br/>samples = 36<br/>value = [32, 0, 0, 0, 4]>, fillcolor="#e89152"] ;
483 -> 491 ;
492 [label=<gini = 0.0<br/>samples = 31<br/>value = [31, 0, 0, 0, 0]>, fillcolor="#e58139"] ;
491 -> 492 ;
493 [label=<x<SUB>0</SUB> &le; -0.118<br/>gini = 0.32<br/>samples = 5<br/>value = [1, 0, 0, 0, 4]>, fillcolor="#ec6ad0"] ;
491 -> 493 ;
494 [label=<gini = 0.0<br/>samples = 1<br/>value = [1, 0, 0, 0, 0]>, fillcolor="#e58139"] ;
493 -> 494 ;
495 [label=<gini = 0.0<br/>samples = 4<br/>value = [0, 0, 0, 0, 4]>, fillcolor="#e539c0"] ;
493 -> 495 ;
496 [label=<x<SUB>4</SUB> &le; -1.523<br/>gini = 0.48<br/>samples = 5<br/>value = [3, 0, 0, 0, 2]>, fillcolor="#f6d5bd"] ;
482 -> 496 ;
497 [label=<gini = 0.0<br/>samples = 2<br/>value = [0, 0, 0, 0, 2]>, fillcolor="#e539c0"] ;
496 -> 497 ;
498 [label=<gini = 0.0<br/>samples = 3<br/>value = [3, 0, 0, 0, 0]>, fillcolor="#e58139"] ;
496 -> 498 ;
499 [label=<x<SUB>3</SUB> &le; -1.96<br/>gini = 0.356<br/>samples = 69<br/>value = [53, 0, 0, 0, 16]>, fillcolor="#eda775"] ;
481 -> 499 ;
500 [label=<x<SUB>4</SUB> &le; -1.651<br/>gini = 0.103<br/>samples = 55<br/>value = [52, 0, 0, 0, 3]>, fillcolor="#e68844"] ;
499 -> 500 ;
501 [label=<x<SUB>5</SUB> &le; -0.088<br/>gini = 0.5<br/>samples = 2<br/>value = [1, 0, 0, 0, 1]>, fillcolor="#ffffff"] ;
500 -> 501 ;
502 [label=<gini = 0.0<br/>samples = 1<br/>value = [1, 0, 0, 0, 0]>, fillcolor="#e58139"] ;
501 -> 502 ;
503 [label=<gini = 0.0<br/>samples = 1<br/>value = [0, 0, 0, 0, 1]>, fillcolor="#e539c0"] ;
501 -> 503 ;
504 [label=<x<SUB>3</SUB> &le; -1.972<br/>gini = 0.073<br/>samples = 53<br/>value = [51, 0, 0, 0, 2]>, fillcolor="#e68641"] ;
500 -> 504 ;
505 [label=<gini = 0.0<br/>samples = 38<br/>value = [38, 0, 0, 0, 0]>, fillcolor="#e58139"] ;
504 -> 505 ;
506 [label=<x<SUB>2</SUB> &le; -0.711<br/>gini = 0.231<br/>samples = 15<br/>value = [13, 0, 0, 0, 2]>, fillcolor="#e99457"] ;
504 -> 506 ;
507 [label=<x<SUB>4</SUB> &le; -1.649<br/>gini = 0.133<br/>samples = 14<br/>value = [13, 0, 0, 0, 1]>, fillcolor="#e78b48"] ;
506 -> 507 ;
508 [label=<x<SUB>3</SUB> &le; -1.969<br/>gini = 0.375<br/>samples = 4<br/>value = [3, 0, 0, 0, 1]>, fillcolor="#eeab7b"] ;
507 -> 508 ;
509 [label=<gini = 0.0<br/>samples = 3<br/>value = [3, 0, 0, 0, 0]>, fillcolor="#e58139"] ;
508 -> 509 ;
510 [label=<gini = 0.0<br/>samples = 1<br/>value = [0, 0, 0, 0, 1]>, fillcolor="#e539c0"] ;
508 -> 510 ;
511 [label=<gini = 0.0<br/>samples = 10<br/>value = [10, 0, 0, 0, 0]>, fillcolor="#e58139"] ;
507 -> 511 ;
512 [label=<gini = 0.0<br/>samples = 1<br/>value = [0, 0, 0, 0, 1]>, fillcolor="#e539c0"] ;
506 -> 512 ;
513 [label=<x<SUB>2</SUB> &le; -0.695<br/>gini = 0.133<br/>samples = 14<br/>value = [1, 0, 0, 0, 13]>, fillcolor="#e748c5"] ;
499 -> 513 ;
514 [label=<gini = 0.0<br/>samples = 13<br/>value = [0, 0, 0, 0, 13]>, fillcolor="#e539c0"] ;
513 -> 514 ;
515 [label=<gini = 0.0<br/>samples = 1<br/>value = [1, 0, 0, 0, 0]>, fillcolor="#e58139"] ;
513 -> 515 ;
516 [label=<x<SUB>1</SUB> &le; -2.477<br/>gini = 0.497<br/>samples = 65<br/>value = [30, 0, 0, 0, 35]>, fillcolor="#fbe3f6"] ;
472 -> 516 ;
517 [label=<x<SUB>5</SUB> &le; -0.004<br/>gini = 0.211<br/>samples = 25<br/>value = [22, 0, 0, 0, 3]>, fillcolor="#e99254"] ;
516 -> 517 ;
518 [label=<x<SUB>3</SUB> &le; -1.97<br/>gini = 0.095<br/>samples = 20<br/>value = [19, 0, 0, 0, 1]>, fillcolor="#e68843"] ;
517 -> 518 ;
519 [label=<gini = 0.0<br/>samples = 18<br/>value = [18, 0, 0, 0, 0]>, fillcolor="#e58139"] ;
518 -> 519 ;
520 [label=<x<SUB>2</SUB> &le; -0.715<br/>gini = 0.5<br/>samples = 2<br/>value = [1, 0, 0, 0, 1]>, fillcolor="#ffffff"] ;
518 -> 520 ;
521 [label=<gini = 0.0<br/>samples = 1<br/>value = [0, 0, 0, 0, 1]>, fillcolor="#e539c0"] ;
520 -> 521 ;
522 [label=<gini = 0.0<br/>samples = 1<br/>value = [1, 0, 0, 0, 0]>, fillcolor="#e58139"] ;
520 -> 522 ;
523 [label=<x<SUB>1</SUB> &le; -2.478<br/>gini = 0.48<br/>samples = 5<br/>value = [3, 0, 0, 0, 2]>, fillcolor="#f6d5bd"] ;
517 -> 523 ;
524 [label=<gini = 0.0<br/>samples = 2<br/>value = [0, 0, 0, 0, 2]>, fillcolor="#e539c0"] ;
523 -> 524 ;
525 [label=<gini = 0.0<br/>samples = 3<br/>value = [3, 0, 0, 0, 0]>, fillcolor="#e58139"] ;
523 -> 525 ;
526 [label=<x<SUB>6</SUB> &le; 0.395<br/>gini = 0.32<br/>samples = 40<br/>value = [8, 0, 0, 0, 32]>, fillcolor="#ec6ad0"] ;
516 -> 526 ;
527 [label=<x<SUB>3</SUB> &le; -1.983<br/>gini = 0.059<br/>samples = 33<br/>value = [1, 0, 0, 0, 32]>, fillcolor="#e63fc2"] ;
526 -> 527 ;
528 [label=<x<SUB>3</SUB> &le; -1.984<br/>gini = 0.5<br/>samples = 2<br/>value = [1, 0, 0, 0, 1]>, fillcolor="#ffffff"] ;
527 -> 528 ;
529 [label=<gini = 0.0<br/>samples = 1<br/>value = [0, 0, 0, 0, 1]>, fillcolor="#e539c0"] ;
528 -> 529 ;
530 [label=<gini = 0.0<br/>samples = 1<br/>value = [1, 0, 0, 0, 0]>, fillcolor="#e58139"] ;
528 -> 530 ;
531 [label=<gini = 0.0<br/>samples = 31<br/>value = [0, 0, 0, 0, 31]>, fillcolor="#e539c0"] ;
527 -> 531 ;
532 [label=<gini = 0.0<br/>samples = 7<br/>value = [7, 0, 0, 0, 0]>, fillcolor="#e58139"] ;
526 -> 532 ;
533 [label=<x<SUB>1</SUB> &le; -2.454<br/>gini = 0.252<br/>samples = 189<br/>value = [28, 0, 0, 0, 161]>, fillcolor="#ea5bcb"] ;
471 -> 533 ;
534 [label=<x<SUB>0</SUB> &le; -0.117<br/>gini = 0.473<br/>samples = 47<br/>value = [18, 0, 0, 0, 29]>, fillcolor="#f5b4e7"] ;
533 -> 534 ;
535 [label=<x<SUB>3</SUB> &le; -1.965<br/>gini = 0.471<br/>samples = 29<br/>value = [18, 0, 0, 0, 11]>, fillcolor="#f5ceb2"] ;
534 -> 535 ;
536 [label=<x<SUB>6</SUB> &le; 0.05<br/>gini = 0.308<br/>samples = 21<br/>value = [17, 0, 0, 0, 4]>, fillcolor="#eb9f68"] ;
535 -> 536 ;
537 [label=<x<SUB>1</SUB> &le; -2.458<br/>gini = 0.105<br/>samples = 18<br/>value = [17, 0, 0, 0, 1]>, fillcolor="#e78845"] ;
536 -> 537 ;
538 [label=<gini = 0.0<br/>samples = 15<br/>value = [15, 0, 0, 0, 0]>, fillcolor="#e58139"] ;
537 -> 538 ;
539 [label=<x<SUB>3</SUB> &le; -1.97<br/>gini = 0.444<br/>samples = 3<br/>value = [2, 0, 0, 0, 1]>, fillcolor="#f2c09c"] ;
537 -> 539 ;
540 [label=<gini = 0.0<br/>samples = 2<br/>value = [2, 0, 0, 0, 0]>, fillcolor="#e58139"] ;
539 -> 540 ;
541 [label=<gini = 0.0<br/>samples = 1<br/>value = [0, 0, 0, 0, 1]>, fillcolor="#e539c0"] ;
539 -> 541 ;
542 [label=<gini = 0.0<br/>samples = 3<br/>value = [0, 0, 0, 0, 3]>, fillcolor="#e539c0"] ;
536 -> 542 ;
543 [label=<x<SUB>1</SUB> &le; -2.455<br/>gini = 0.219<br/>samples = 8<br/>value = [1, 0, 0, 0, 7]>, fillcolor="#e955c9"] ;
535 -> 543 ;
544 [label=<gini = 0.0<br/>samples = 7<br/>value = [0, 0, 0, 0, 7]>, fillcolor="#e539c0"] ;
543 -> 544 ;
545 [label=<gini = 0.0<br/>samples = 1<br/>value = [1, 0, 0, 0, 0]>, fillcolor="#e58139"] ;
543 -> 545 ;
546 [label=<gini = 0.0<br/>samples = 18<br/>value = [0, 0, 0, 0, 18]>, fillcolor="#e539c0"] ;
534 -> 546 ;
547 [label=<x<SUB>3</SUB> &le; -1.991<br/>gini = 0.131<br/>samples = 142<br/>value = [10, 0, 0, 0, 132]>, fillcolor="#e748c5"] ;
533 -> 547 ;
548 [label=<gini = 0.0<br/>samples = 2<br/>value = [2, 0, 0, 0, 0]>, fillcolor="#e58139"] ;
547 -> 548 ;
549 [label=<x<SUB>2</SUB> &le; -0.536<br/>gini = 0.108<br/>samples = 140<br/>value = [8, 0, 0, 0, 132]>, fillcolor="#e745c4"] ;
547 -> 549 ;
550 [label=<x<SUB>3</SUB> &le; -1.978<br/>gini = 0.032<br/>samples = 122<br/>value = [2, 0, 0, 0, 120]>, fillcolor="#e53cc1"] ;
549 -> 550 ;
551 [label=<x<SUB>0</SUB> &le; -0.117<br/>gini = 0.375<br/>samples = 4<br/>value = [1, 0, 0, 0, 3]>, fillcolor="#ee7bd5"] ;
550 -> 551 ;
552 [label=<gini = 0.0<br/>samples = 1<br/>value = [1, 0, 0, 0, 0]>, fillcolor="#e58139"] ;
551 -> 552 ;
553 [label=<gini = 0.0<br/>samples = 3<br/>value = [0, 0, 0, 0, 3]>, fillcolor="#e539c0"] ;
551 -> 553 ;
554 [label=<x<SUB>3</SUB> &le; -1.965<br/>gini = 0.017<br/>samples = 118<br/>value = [1, 0, 0, 0, 117]>, fillcolor="#e53bc1"] ;
550 -> 554 ;
555 [label=<x<SUB>0</SUB> &le; -0.118<br/>gini = 0.111<br/>samples = 17<br/>value = [1, 0, 0, 0, 16]>, fillcolor="#e745c4"] ;
554 -> 555 ;
556 [label=<x<SUB>2</SUB> &le; -0.725<br/>gini = 0.5<br/>samples = 2<br/>value = [1, 0, 0, 0, 1]>, fillcolor="#ffffff"] ;
555 -> 556 ;
557 [label=<gini = 0.0<br/>samples = 1<br/>value = [1, 0, 0, 0, 0]>, fillcolor="#e58139"] ;
556 -> 557 ;
558 [label=<gini = 0.0<br/>samples = 1<br/>value = [0, 0, 0, 0, 1]>, fillcolor="#e539c0"] ;
556 -> 558 ;
559 [label=<gini = 0.0<br/>samples = 15<br/>value = [0, 0, 0, 0, 15]>, fillcolor="#e539c0"] ;
555 -> 559 ;
560 [label=<gini = 0.0<br/>samples = 101<br/>value = [0, 0, 0, 0, 101]>, fillcolor="#e539c0"] ;
554 -> 560 ;
561 [label=<x<SUB>0</SUB> &le; -0.119<br/>gini = 0.444<br/>samples = 18<br/>value = [6, 0, 0, 0, 12]>, fillcolor="#f29ce0"] ;
549 -> 561 ;
562 [label=<gini = 0.0<br/>samples = 12<br/>value = [0, 0, 0, 0, 12]>, fillcolor="#e539c0"] ;
561 -> 562 ;
563 [label=<gini = 0.0<br/>samples = 6<br/>value = [6, 0, 0, 0, 0]>, fillcolor="#e58139"] ;
561 -> 563 ;
564 [label=<x<SUB>1</SUB> &le; -1.525<br/>gini = 0.008<br/>samples = 4756<br/>value = [4736, 0, 0, 0, 20]>, fillcolor="#e5823a"] ;
470 -> 564 ;
565 [label=<x<SUB>2</SUB> &le; -1.622<br/>gini = 0.002<br/>samples = 4739<br/>value = [4735, 0, 0, 0, 4]>, fillcolor="#e58139"] ;
564 -> 565 ;
566 [label=<x<SUB>0</SUB> &le; 0.248<br/>gini = 0.332<br/>samples = 19<br/>value = [15, 0, 0, 0, 4]>, fillcolor="#eca36e"] ;
565 -> 566 ;
567 [label=<gini = 0.0<br/>samples = 15<br/>value = [15, 0, 0, 0, 0]>, fillcolor="#e58139"] ;
566 -> 567 ;
568 [label=<gini = 0.0<br/>samples = 4<br/>value = [0, 0, 0, 0, 4]>, fillcolor="#e539c0"] ;
566 -> 568 ;
569 [label=<gini = 0.0<br/>samples = 4720<br/>value = [4720, 0, 0, 0, 0]>, fillcolor="#e58139"] ;
565 -> 569 ;
570 [label=<x<SUB>0</SUB> &le; 0.561<br/>gini = 0.111<br/>samples = 17<br/>value = [1, 0, 0, 0, 16]>, fillcolor="#e745c4"] ;
564 -> 570 ;
571 [label=<gini = 0.0<br/>samples = 16<br/>value = [0, 0, 0, 0, 16]>, fillcolor="#e539c0"] ;
570 -> 571 ;
572 [label=<gini = 0.0<br/>samples = 1<br/>value = [1, 0, 0, 0, 0]>, fillcolor="#e58139"] ;
570 -> 572 ;
573 [label=<x<SUB>1</SUB> &le; -2.495<br/>gini = 0.127<br/>samples = 589<br/>value = [40, 0, 0, 0, 549]>, fillcolor="#e747c5"] ;
457 -> 573 ;
574 [label=<x<SUB>4</SUB> &le; -1.724<br/>gini = 0.175<br/>samples = 31<br/>value = [28, 0, 0, 0, 3]>, fillcolor="#e88e4e"] ;
573 -> 574 ;
575 [label=<gini = 0.0<br/>samples = 27<br/>value = [27, 0, 0, 0, 0]>, fillcolor="#e58139"] ;
574 -> 575 ;
576 [label=<x<SUB>3</SUB> &le; -2.205<br/>gini = 0.375<br/>samples = 4<br/>value = [1, 0, 0, 0, 3]>, fillcolor="#ee7bd5"] ;
574 -> 576 ;
577 [label=<gini = 0.0<br/>samples = 3<br/>value = [0, 0, 0, 0, 3]>, fillcolor="#e539c0"] ;
576 -> 577 ;
578 [label=<gini = 0.0<br/>samples = 1<br/>value = [1, 0, 0, 0, 0]>, fillcolor="#e58139"] ;
576 -> 578 ;
579 [label=<x<SUB>2</SUB> &le; -0.465<br/>gini = 0.042<br/>samples = 558<br/>value = [12, 0, 0, 0, 546]>, fillcolor="#e63dc1"] ;
573 -> 579 ;
580 [label=<x<SUB>0</SUB> &le; 1.667<br/>gini = 0.022<br/>samples = 544<br/>value = [6, 0, 0, 0, 538]>, fillcolor="#e53bc1"] ;
579 -> 580 ;
581 [label=<x<SUB>1</SUB> &le; -2.491<br/>gini = 0.015<br/>samples = 542<br/>value = [4, 0, 0, 0, 538]>, fillcolor="#e53ac0"] ;
580 -> 581 ;
582 [label=<x<SUB>4</SUB> &le; -1.725<br/>gini = 0.32<br/>samples = 20<br/>value = [4, 0, 0, 0, 16]>, fillcolor="#ec6ad0"] ;
581 -> 582 ;
583 [label=<gini = 0.0<br/>samples = 2<br/>value = [2, 0, 0, 0, 0]>, fillcolor="#e58139"] ;
582 -> 583 ;
584 [label=<x<SUB>6</SUB> &le; 0.487<br/>gini = 0.198<br/>samples = 18<br/>value = [2, 0, 0, 0, 16]>, fillcolor="#e852c8"] ;
582 -> 584 ;
585 [label=<gini = 0.0<br/>samples = 2<br/>value = [2, 0, 0, 0, 0]>, fillcolor="#e58139"] ;
584 -> 585 ;
586 [label=<gini = 0.0<br/>samples = 16<br/>value = [0, 0, 0, 0, 16]>, fillcolor="#e539c0"] ;
584 -> 586 ;
587 [label=<gini = 0.0<br/>samples = 522<br/>value = [0, 0, 0, 0, 522]>, fillcolor="#e539c0"] ;
581 -> 587 ;
588 [label=<gini = 0.0<br/>samples = 2<br/>value = [2, 0, 0, 0, 0]>, fillcolor="#e58139"] ;
580 -> 588 ;
589 [label=<x<SUB>3</SUB> &le; -2.128<br/>gini = 0.49<br/>samples = 14<br/>value = [6, 0, 0, 0, 8]>, fillcolor="#f8ceef"] ;
579 -> 589 ;
590 [label=<gini = 0.0<br/>samples = 6<br/>value = [6, 0, 0, 0, 0]>, fillcolor="#e58139"] ;
589 -> 590 ;
591 [label=<gini = 0.0<br/>samples = 8<br/>value = [0, 0, 0, 0, 8]>, fillcolor="#e539c0"] ;
589 -> 591 ;
592 [label=<x<SUB>5</SUB> &le; 0.423<br/>gini = 0.005<br/>samples = 404<br/>value = [1, 0, 0, 0, 403]>, fillcolor="#e539c0"] ;
440 -> 592 ;
593 [label=<gini = 0.0<br/>samples = 1<br/>value = [1, 0, 0, 0, 0]>, fillcolor="#e58139"] ;
592 -> 593 ;
594 [label=<gini = 0.0<br/>samples = 403<br/>value = [0, 0, 0, 0, 403]>, fillcolor="#e539c0"] ;
592 -> 594 ;
595 [label=<x<SUB>6</SUB> &le; 0.686<br/>gini = 0.342<br/>samples = 163175<br/>value = [31681, 17, 59, 2916, 128502]>, fillcolor="#ec6dd1"] ;
1 -> 595 ;
596 [label=<x<SUB>6</SUB> &le; -6.443<br/>gini = 0.434<br/>samples = 113467<br/>value = [31058, 17, 22, 2916, 79454]>, fillcolor="#f08bda"] ;
595 -> 596 ;
597 [label=<x<SUB>6</SUB> &le; -8.012<br/>gini = 0.012<br/>samples = 2933<br/>value = [0, 0, 17, 2916, 0]>, fillcolor="#3d3ae5"] ;
596 -> 597 ;
598 [label=<x<SUB>1</SUB> &le; 1.277<br/>gini = 0.44<br/>samples = 52<br/>value = [0, 0, 17, 35, 0]>, fillcolor="#9b99f2"] ;
597 -> 598 ;
599 [label=<x<SUB>5</SUB> &le; -0.69<br/>gini = 0.278<br/>samples = 42<br/>value = [0, 0, 7, 35, 0]>, fillcolor="#6361ea"] ;
598 -> 599 ;
600 [label=<x<SUB>2</SUB> &le; 1.405<br/>gini = 0.494<br/>samples = 9<br/>value = [0, 0, 5, 4, 0]>, fillcolor="#d7faf3"] ;
599 -> 600 ;
601 [label=<x<SUB>3</SUB> &le; 1.261<br/>gini = 0.278<br/>samples = 6<br/>value = [0, 0, 5, 1, 0]>, fillcolor="#61ead1"] ;
600 -> 601 ;
602 [label=<gini = 0.0<br/>samples = 5<br/>value = [0, 0, 5, 0, 0]>, fillcolor="#39e5c5"] ;
601 -> 602 ;
603 [label=<gini = 0.0<br/>samples = 1<br/>value = [0, 0, 0, 1, 0]>, fillcolor="#3c39e5"] ;
601 -> 603 ;
604 [label=<gini = 0.0<br/>samples = 3<br/>value = [0, 0, 0, 3, 0]>, fillcolor="#3c39e5"] ;
600 -> 604 ;
605 [label=<x<SUB>3</SUB> &le; 1.329<br/>gini = 0.114<br/>samples = 33<br/>value = [0, 0, 2, 31, 0]>, fillcolor="#4946e7"] ;
599 -> 605 ;
606 [label=<x<SUB>0</SUB> &le; 0.745<br/>gini = 0.061<br/>samples = 32<br/>value = [0, 0, 1, 31, 0]>, fillcolor="#423fe6"] ;
605 -> 606 ;
607 [label=<x<SUB>6</SUB> &le; -8.04<br/>gini = 0.444<br/>samples = 3<br/>value = [0, 0, 1, 2, 0]>, fillcolor="#9e9cf2"] ;
606 -> 607 ;
608 [label=<gini = 0.0<br/>samples = 2<br/>value = [0, 0, 0, 2, 0]>, fillcolor="#3c39e5"] ;
607 -> 608 ;
609 [label=<gini = 0.0<br/>samples = 1<br/>value = [0, 0, 1, 0, 0]>, fillcolor="#39e5c5"] ;
607 -> 609 ;
610 [label=<gini = 0.0<br/>samples = 29<br/>value = [0, 0, 0, 29, 0]>, fillcolor="#3c39e5"] ;
606 -> 610 ;
611 [label=<gini = 0.0<br/>samples = 1<br/>value = [0, 0, 1, 0, 0]>, fillcolor="#39e5c5"] ;
605 -> 611 ;
612 [label=<gini = 0.0<br/>samples = 10<br/>value = [0, 0, 10, 0, 0]>, fillcolor="#39e5c5"] ;
598 -> 612 ;
613 [label=<gini = 0.0<br/>samples = 2881<br/>value = [0, 0, 0, 2881, 0]>, fillcolor="#3c39e5"] ;
597 -> 613 ;
614 [label=<x<SUB>4</SUB> &le; -0.308<br/>gini = 0.404<br/>samples = 110534<br/>value = [31058, 17, 5, 0, 79454]>, fillcolor="#ef86d9"] ;
596 -> 614 ;
615 [label=<x<SUB>3</SUB> &le; -1.139<br/>gini = 0.329<br/>samples = 73843<br/>value = [15290, 14, 2, 0, 58537]>, fillcolor="#ec6dd0"] ;
614 -> 615 ;
616 [label=<x<SUB>0</SUB> &le; -0.193<br/>gini = 0.481<br/>samples = 27526<br/>value = [11055, 0, 0, 0, 16471]>, fillcolor="#f6beea"] ;
615 -> 616 ;
617 [label=<x<SUB>4</SUB> &le; -0.906<br/>gini = 0.171<br/>samples = 11280<br/>value = [1068, 0, 0, 0, 10212]>, fillcolor="#e84ec7"] ;
616 -> 617 ;
618 [label=<x<SUB>1</SUB> &le; -2.161<br/>gini = 0.02<br/>samples = 10237<br/>value = [102, 0, 0, 0, 10135]>, fillcolor="#e53bc1"] ;
617 -> 618 ;
619 [label=<x<SUB>4</SUB> &le; -1.52<br/>gini = 0.117<br/>samples = 16<br/>value = [15, 0, 0, 0, 1]>, fillcolor="#e78946"] ;
618 -> 619 ;
620 [label=<x<SUB>5</SUB> &le; 1.104<br/>gini = 0.5<br/>samples = 2<br/>value = [1, 0, 0, 0, 1]>, fillcolor="#ffffff"] ;
619 -> 620 ;
621 [label=<gini = 0.0<br/>samples = 1<br/>value = [1, 0, 0, 0, 0]>, fillcolor="#e58139"] ;
620 -> 621 ;
622 [label=<gini = 0.0<br/>samples = 1<br/>value = [0, 0, 0, 0, 1]>, fillcolor="#e539c0"] ;
620 -> 622 ;
623 [label=<gini = 0.0<br/>samples = 14<br/>value = [14, 0, 0, 0, 0]>, fillcolor="#e58139"] ;
619 -> 623 ;
624 [label=<x<SUB>1</SUB> &le; -1.316<br/>gini = 0.017<br/>samples = 10221<br/>value = [87, 0, 0, 0, 10134]>, fillcolor="#e53bc1"] ;
618 -> 624 ;
625 [label=<x<SUB>2</SUB> &le; -1.797<br/>gini = 0.002<br/>samples = 9756<br/>value = [8, 0, 0, 0, 9748]>, fillcolor="#e539c0"] ;
624 -> 625 ;
626 [label=<x<SUB>2</SUB> &le; -1.798<br/>gini = 0.051<br/>samples = 229<br/>value = [6, 0, 0, 0, 223]>, fillcolor="#e63ec2"] ;
625 -> 626 ;
627 [label=<x<SUB>5</SUB> &le; 0.834<br/>gini = 0.035<br/>samples = 226<br/>value = [4, 0, 0, 0, 222]>, fillcolor="#e53dc1"] ;
626 -> 627 ;
628 [label=<gini = 0.0<br/>samples = 1<br/>value = [1, 0, 0, 0, 0]>, fillcolor="#e58139"] ;
627 -> 628 ;
629 [label=<x<SUB>2</SUB> &le; -1.798<br/>gini = 0.026<br/>samples = 225<br/>value = [3, 0, 0, 0, 222]>, fillcolor="#e53cc1"] ;
627 -> 629 ;
630 [label=<x<SUB>4</SUB> &le; -1.148<br/>gini = 0.018<br/>samples = 221<br/>value = [2, 0, 0, 0, 219]>, fillcolor="#e53bc1"] ;
629 -> 630 ;
631 [label=<x<SUB>5</SUB> &le; 0.891<br/>gini = 0.009<br/>samples = 218<br/>value = [1, 0, 0, 0, 217]>, fillcolor="#e53ac0"] ;
630 -> 631 ;
632 [label=<x<SUB>5</SUB> &le; 0.89<br/>gini = 0.18<br/>samples = 10<br/>value = [1, 0, 0, 0, 9]>, fillcolor="#e84fc7"] ;
631 -> 632 ;
633 [label=<gini = 0.0<br/>samples = 9<br/>value = [0, 0, 0, 0, 9]>, fillcolor="#e539c0"] ;
632 -> 633 ;
634 [label=<gini = 0.0<br/>samples = 1<br/>value = [1, 0, 0, 0, 0]>, fillcolor="#e58139"] ;
632 -> 634 ;
635 [label=<gini = 0.0<br/>samples = 208<br/>value = [0, 0, 0, 0, 208]>, fillcolor="#e539c0"] ;
631 -> 635 ;
636 [label=<x<SUB>6</SUB> &le; 0.595<br/>gini = 0.444<br/>samples = 3<br/>value = [1, 0, 0, 0, 2]>, fillcolor="#f29ce0"] ;
630 -> 636 ;
637 [label=<gini = 0.0<br/>samples = 2<br/>value = [0, 0, 0, 0, 2]>, fillcolor="#e539c0"] ;
636 -> 637 ;
638 [label=<gini = 0.0<br/>samples = 1<br/>value = [1, 0, 0, 0, 0]>, fillcolor="#e58139"] ;
636 -> 638 ;
639 [label=<x<SUB>4</SUB> &le; -1.16<br/>gini = 0.375<br/>samples = 4<br/>value = [1, 0, 0, 0, 3]>, fillcolor="#ee7bd5"] ;
629 -> 639 ;
640 [label=<gini = 0.0<br/>samples = 1<br/>value = [1, 0, 0, 0, 0]>, fillcolor="#e58139"] ;
639 -> 640 ;
641 [label=<gini = 0.0<br/>samples = 3<br/>value = [0, 0, 0, 0, 3]>, fillcolor="#e539c0"] ;
639 -> 641 ;
642 [label=<x<SUB>6</SUB> &le; 0.593<br/>gini = 0.444<br/>samples = 3<br/>value = [2, 0, 0, 0, 1]>, fillcolor="#f2c09c"] ;
626 -> 642 ;
643 [label=<gini = 0.0<br/>samples = 1<br/>value = [0, 0, 0, 0, 1]>, fillcolor="#e539c0"] ;
642 -> 643 ;
644 [label=<gini = 0.0<br/>samples = 2<br/>value = [2, 0, 0, 0, 0]>, fillcolor="#e58139"] ;
642 -> 644 ;
645 [label=<x<SUB>0</SUB> &le; -0.195<br/>gini = 0.0<br/>samples = 9527<br/>value = [2, 0, 0, 0, 9525]>, fillcolor="#e539c0"] ;
625 -> 645 ;
646 [label=<gini = 0.0<br/>samples = 8951<br/>value = [0, 0, 0, 0, 8951]>, fillcolor="#e539c0"] ;
645 -> 646 ;
647 [label=<x<SUB>0</SUB> &le; -0.195<br/>gini = 0.007<br/>samples = 576<br/>value = [2, 0, 0, 0, 574]>, fillcolor="#e53ac0"] ;
645 -> 647 ;
648 [label=<gini = 0.0<br/>samples = 1<br/>value = [1, 0, 0, 0, 0]>, fillcolor="#e58139"] ;
647 -> 648 ;
649 [label=<x<SUB>5</SUB> &le; 1.275<br/>gini = 0.003<br/>samples = 575<br/>value = [1, 0, 0, 0, 574]>, fillcolor="#e539c0"] ;
647 -> 649 ;
650 [label=<gini = 0.0<br/>samples = 573<br/>value = [0, 0, 0, 0, 573]>, fillcolor="#e539c0"] ;
649 -> 650 ;
651 [label=<x<SUB>1</SUB> &le; -1.501<br/>gini = 0.5<br/>samples = 2<br/>value = [1, 0, 0, 0, 1]>, fillcolor="#ffffff"] ;
649 -> 651 ;
652 [label=<gini = 0.0<br/>samples = 1<br/>value = [1, 0, 0, 0, 0]>, fillcolor="#e58139"] ;
651 -> 652 ;
653 [label=<gini = 0.0<br/>samples = 1<br/>value = [0, 0, 0, 0, 1]>, fillcolor="#e539c0"] ;
651 -> 653 ;
654 [label=<x<SUB>0</SUB> &le; -0.527<br/>gini = 0.282<br/>samples = 465<br/>value = [79, 0, 0, 0, 386]>, fillcolor="#ea62cd"] ;
624 -> 654 ;
655 [label=<gini = 0.0<br/>samples = 355<br/>value = [0, 0, 0, 0, 355]>, fillcolor="#e539c0"] ;
654 -> 655 ;
656 [label=<x<SUB>6</SUB> &le; -0.727<br/>gini = 0.405<br/>samples = 110<br/>value = [79, 0, 0, 0, 31]>, fillcolor="#efb287"] ;
654 -> 656 ;
657 [label=<gini = 0.0<br/>samples = 31<br/>value = [0, 0, 0, 0, 31]>, fillcolor="#e539c0"] ;
656 -> 657 ;
658 [label=<gini = 0.0<br/>samples = 79<br/>value = [79, 0, 0, 0, 0]>, fillcolor="#e58139"] ;
656 -> 658 ;
659 [label=<x<SUB>0</SUB> &le; -0.492<br/>gini = 0.137<br/>samples = 1043<br/>value = [966, 0, 0, 0, 77]>, fillcolor="#e78b49"] ;
617 -> 659 ;
660 [label=<gini = 0.0<br/>samples = 76<br/>value = [0, 0, 0, 0, 76]>, fillcolor="#e539c0"] ;
659 -> 660 ;
661 [label=<x<SUB>2</SUB> &le; -0.002<br/>gini = 0.002<br/>samples = 967<br/>value = [966, 0, 0, 0, 1]>, fillcolor="#e58139"] ;
659 -> 661 ;
662 [label=<gini = 0.0<br/>samples = 966<br/>value = [966, 0, 0, 0, 0]>, fillcolor="#e58139"] ;
661 -> 662 ;
663 [label=<gini = 0.0<br/>samples = 1<br/>value = [0, 0, 0, 0, 1]>, fillcolor="#e539c0"] ;
661 -> 663 ;
664 [label=<x<SUB>4</SUB> &le; -1.487<br/>gini = 0.474<br/>samples = 16246<br/>value = [9987, 0, 0, 0, 6259]>, fillcolor="#f5d0b5"] ;
616 -> 664 ;
665 [label=<x<SUB>3</SUB> &le; -1.839<br/>gini = 0.026<br/>samples = 3267<br/>value = [43, 0, 0, 0, 3224]>, fillcolor="#e53cc1"] ;
664 -> 665 ;
666 [label=<x<SUB>6</SUB> &le; 0.529<br/>gini = 0.465<br/>samples = 76<br/>value = [28, 0, 0, 0, 48]>, fillcolor="#f4ace5"] ;
665 -> 666 ;
667 [label=<x<SUB>1</SUB> &le; -2.324<br/>gini = 0.266<br/>samples = 57<br/>value = [9, 0, 0, 0, 48]>, fillcolor="#ea5ecc"] ;
666 -> 667 ;
668 [label=<x<SUB>4</SUB> &le; -1.519<br/>gini = 0.498<br/>samples = 17<br/>value = [9, 0, 0, 0, 8]>, fillcolor="#fcf1e9"] ;
667 -> 668 ;
669 [label=<x<SUB>4</SUB> &le; -1.521<br/>gini = 0.278<br/>samples = 6<br/>value = [1, 0, 0, 0, 5]>, fillcolor="#ea61cd"] ;
668 -> 669 ;
670 [label=<gini = 0.0<br/>samples = 1<br/>value = [1, 0, 0, 0, 0]>, fillcolor="#e58139"] ;
669 -> 670 ;
671 [label=<gini = 0.0<br/>samples = 5<br/>value = [0, 0, 0, 0, 5]>, fillcolor="#e539c0"] ;
669 -> 671 ;
672 [label=<x<SUB>6</SUB> &le; -0.543<br/>gini = 0.397<br/>samples = 11<br/>value = [8, 0, 0, 0, 3]>, fillcolor="#efb083"] ;
668 -> 672 ;
673 [label=<x<SUB>1</SUB> &le; -2.335<br/>gini = 0.444<br/>samples = 3<br/>value = [1, 0, 0, 0, 2]>, fillcolor="#f29ce0"] ;
672 -> 673 ;
674 [label=<gini = 0.0<br/>samples = 1<br/>value = [1, 0, 0, 0, 0]>, fillcolor="#e58139"] ;
673 -> 674 ;
675 [label=<gini = 0.0<br/>samples = 2<br/>value = [0, 0, 0, 0, 2]>, fillcolor="#e539c0"] ;
673 -> 675 ;
676 [label=<x<SUB>4</SUB> &le; -1.518<br/>gini = 0.219<br/>samples = 8<br/>value = [7, 0, 0, 0, 1]>, fillcolor="#e99355"] ;
672 -> 676 ;
677 [label=<x<SUB>3</SUB> &le; -1.844<br/>gini = 0.5<br/>samples = 2<br/>value = [1, 0, 0, 0, 1]>, fillcolor="#ffffff"] ;
676 -> 677 ;
678 [label=<gini = 0.0<br/>samples = 1<br/>value = [1, 0, 0, 0, 0]>, fillcolor="#e58139"] ;
677 -> 678 ;
679 [label=<gini = 0.0<br/>samples = 1<br/>value = [0, 0, 0, 0, 1]>, fillcolor="#e539c0"] ;
677 -> 679 ;
680 [label=<gini = 0.0<br/>samples = 6<br/>value = [6, 0, 0, 0, 0]>, fillcolor="#e58139"] ;
676 -> 680 ;
681 [label=<gini = 0.0<br/>samples = 40<br/>value = [0, 0, 0, 0, 40]>, fillcolor="#e539c0"] ;
667 -> 681 ;
682 [label=<gini = 0.0<br/>samples = 19<br/>value = [19, 0, 0, 0, 0]>, fillcolor="#e58139"] ;
666 -> 682 ;
683 [label=<x<SUB>2</SUB> &le; -0.116<br/>gini = 0.009<br/>samples = 3191<br/>value = [15, 0, 0, 0, 3176]>, fillcolor="#e53ac0"] ;
665 -> 683 ;
684 [label=<x<SUB>6</SUB> &le; 0.652<br/>gini = 0.007<br/>samples = 3188<br/>value = [12, 0, 0, 0, 3176]>, fillcolor="#e53ac0"] ;
683 -> 684 ;
685 [label=<x<SUB>1</SUB> &le; -2.29<br/>gini = 0.004<br/>samples = 3178<br/>value = [7, 0, 0, 0, 3171]>, fillcolor="#e539c0"] ;
684 -> 685 ;
686 [label=<x<SUB>6</SUB> &le; 0.313<br/>gini = 0.187<br/>samples = 67<br/>value = [7, 0, 0, 0, 60]>, fillcolor="#e850c7"] ;
685 -> 686 ;
687 [label=<gini = 0.0<br/>samples = 60<br/>value = [0, 0, 0, 0, 60]>, fillcolor="#e539c0"] ;
686 -> 687 ;
688 [label=<gini = 0.0<br/>samples = 7<br/>value = [7, 0, 0, 0, 0]>, fillcolor="#e58139"] ;
686 -> 688 ;
689 [label=<gini = 0.0<br/>samples = 3111<br/>value = [0, 0, 0, 0, 3111]>, fillcolor="#e539c0"] ;
685 -> 689 ;
690 [label=<x<SUB>3</SUB> &le; -1.746<br/>gini = 0.5<br/>samples = 10<br/>value = [5, 0, 0, 0, 5]>, fillcolor="#ffffff"] ;
684 -> 690 ;
691 [label=<gini = 0.0<br/>samples = 5<br/>value = [5, 0, 0, 0, 0]>, fillcolor="#e58139"] ;
690 -> 691 ;
692 [label=<gini = 0.0<br/>samples = 5<br/>value = [0, 0, 0, 0, 5]>, fillcolor="#e539c0"] ;
690 -> 692 ;
693 [label=<gini = 0.0<br/>samples = 3<br/>value = [3, 0, 0, 0, 0]>, fillcolor="#e58139"] ;
683 -> 693 ;
694 [label=<x<SUB>0</SUB> &le; 0.922<br/>gini = 0.358<br/>samples = 12979<br/>value = [9944, 0, 0, 0, 3035]>, fillcolor="#eda775"] ;
664 -> 694 ;
695 [label=<x<SUB>2</SUB> &le; -1.627<br/>gini = 0.317<br/>samples = 12388<br/>value = [9942, 0, 0, 0, 2446]>, fillcolor="#eba06a"] ;
694 -> 695 ;
696 [label=<x<SUB>4</SUB> &le; -0.993<br/>gini = 0.277<br/>samples = 626<br/>value = [104, 0, 0, 0, 522]>, fillcolor="#ea60cd"] ;
695 -> 696 ;
697 [label=<x<SUB>0</SUB> &le; 0.918<br/>gini = 0.03<br/>samples = 460<br/>value = [7, 0, 0, 0, 453]>, fillcolor="#e53cc1"] ;
696 -> 697 ;
698 [label=<x<SUB>4</SUB> &le; -1.008<br/>gini = 0.017<br/>samples = 455<br/>value = [4, 0, 0, 0, 451]>, fillcolor="#e53bc1"] ;
697 -> 698 ;
699 [label=<x<SUB>0</SUB> &le; 0.918<br/>gini = 0.005<br/>samples = 438<br/>value = [1, 0, 0, 0, 437]>, fillcolor="#e539c0"] ;
698 -> 699 ;
700 [label=<gini = 0.0<br/>samples = 429<br/>value = [0, 0, 0, 0, 429]>, fillcolor="#e539c0"] ;
699 -> 700 ;
701 [label=<x<SUB>1</SUB> &le; -1.352<br/>gini = 0.198<br/>samples = 9<br/>value = [1, 0, 0, 0, 8]>, fillcolor="#e852c8"] ;
699 -> 701 ;
702 [label=<gini = 0.0<br/>samples = 1<br/>value = [1, 0, 0, 0, 0]>, fillcolor="#e58139"] ;
701 -> 702 ;
703 [label=<gini = 0.0<br/>samples = 8<br/>value = [0, 0, 0, 0, 8]>, fillcolor="#e539c0"] ;
701 -> 703 ;
704 [label=<x<SUB>5</SUB> &le; 1.789<br/>gini = 0.291<br/>samples = 17<br/>value = [3, 0, 0, 0, 14]>, fillcolor="#eb63ce"] ;
698 -> 704 ;
705 [label=<x<SUB>5</SUB> &le; 1.63<br/>gini = 0.124<br/>samples = 15<br/>value = [1, 0, 0, 0, 14]>, fillcolor="#e747c4"] ;
704 -> 705 ;
706 [label=<x<SUB>0</SUB> &le; 0.476<br/>gini = 0.444<br/>samples = 3<br/>value = [1, 0, 0, 0, 2]>, fillcolor="#f29ce0"] ;
705 -> 706 ;
707 [label=<gini = 0.0<br/>samples = 2<br/>value = [0, 0, 0, 0, 2]>, fillcolor="#e539c0"] ;
706 -> 707 ;
708 [label=<gini = 0.0<br/>samples = 1<br/>value = [1, 0, 0, 0, 0]>, fillcolor="#e58139"] ;
706 -> 708 ;
709 [label=<gini = 0.0<br/>samples = 12<br/>value = [0, 0, 0, 0, 12]>, fillcolor="#e539c0"] ;
705 -> 709 ;
710 [label=<gini = 0.0<br/>samples = 2<br/>value = [2, 0, 0, 0, 0]>, fillcolor="#e58139"] ;
704 -> 710 ;
711 [label=<x<SUB>5</SUB> &le; 1.712<br/>gini = 0.48<br/>samples = 5<br/>value = [3, 0, 0, 0, 2]>, fillcolor="#f6d5bd"] ;
697 -> 711 ;
712 [label=<gini = 0.0<br/>samples = 3<br/>value = [3, 0, 0, 0, 0]>, fillcolor="#e58139"] ;
711 -> 712 ;
713 [label=<gini = 0.0<br/>samples = 2<br/>value = [0, 0, 0, 0, 2]>, fillcolor="#e539c0"] ;
711 -> 713 ;
714 [label=<x<SUB>6</SUB> &le; -1.426<br/>gini = 0.486<br/>samples = 166<br/>value = [97, 0, 0, 0, 69]>, fillcolor="#f7dbc6"] ;
696 -> 714 ;
715 [label=<x<SUB>5</SUB> &le; 1.618<br/>gini = 0.162<br/>samples = 45<br/>value = [4, 0, 0, 0, 41]>, fillcolor="#e84cc6"] ;
714 -> 715 ;
716 [label=<x<SUB>2</SUB> &le; -1.653<br/>gini = 0.48<br/>samples = 5<br/>value = [3, 0, 0, 0, 2]>, fillcolor="#f6d5bd"] ;
715 -> 716 ;
717 [label=<gini = 0.0<br/>samples = 3<br/>value = [3, 0, 0, 0, 0]>, fillcolor="#e58139"] ;
716 -> 717 ;
718 [label=<gini = 0.0<br/>samples = 2<br/>value = [0, 0, 0, 0, 2]>, fillcolor="#e539c0"] ;
716 -> 718 ;
719 [label=<x<SUB>5</SUB> &le; 1.78<br/>gini = 0.049<br/>samples = 40<br/>value = [1, 0, 0, 0, 39]>, fillcolor="#e63ec2"] ;
715 -> 719 ;
720 [label=<gini = 0.0<br/>samples = 39<br/>value = [0, 0, 0, 0, 39]>, fillcolor="#e539c0"] ;
719 -> 720 ;
721 [label=<gini = 0.0<br/>samples = 1<br/>value = [1, 0, 0, 0, 0]>, fillcolor="#e58139"] ;
719 -> 721 ;
722 [label=<x<SUB>1</SUB> &le; -1.417<br/>gini = 0.356<br/>samples = 121<br/>value = [93, 0, 0, 0, 28]>, fillcolor="#eda775"] ;
714 -> 722 ;
723 [label=<x<SUB>0</SUB> &le; 0.476<br/>gini = 0.267<br/>samples = 107<br/>value = [90, 0, 0, 0, 17]>, fillcolor="#ea995e"] ;
722 -> 723 ;
724 [label=<x<SUB>3</SUB> &le; -1.537<br/>gini = 0.48<br/>samples = 10<br/>value = [4, 0, 0, 0, 6]>, fillcolor="#f6bdea"] ;
723 -> 724 ;
725 [label=<x<SUB>6</SUB> &le; -1.396<br/>gini = 0.32<br/>samples = 5<br/>value = [4, 0, 0, 0, 1]>, fillcolor="#eca06a"] ;
724 -> 725 ;
726 [label=<gini = 0.0<br/>samples = 1<br/>value = [0, 0, 0, 0, 1]>, fillcolor="#e539c0"] ;
725 -> 726 ;
727 [label=<gini = 0.0<br/>samples = 4<br/>value = [4, 0, 0, 0, 0]>, fillcolor="#e58139"] ;
725 -> 727 ;
728 [label=<gini = 0.0<br/>samples = 5<br/>value = [0, 0, 0, 0, 5]>, fillcolor="#e539c0"] ;
724 -> 728 ;
729 [label=<x<SUB>5</SUB> &le; 1.678<br/>gini = 0.201<br/>samples = 97<br/>value = [86, 0, 0, 0, 11]>, fillcolor="#e89152"] ;
723 -> 729 ;
730 [label=<gini = 0.0<br/>samples = 38<br/>value = [38, 0, 0, 0, 0]>, fillcolor="#e58139"] ;
729 -> 730 ;
731 [label=<x<SUB>5</SUB> &le; 1.703<br/>gini = 0.303<br/>samples = 59<br/>value = [48, 0, 0, 0, 11]>, fillcolor="#eb9e66"] ;
729 -> 731 ;
732 [label=<x<SUB>3</SUB> &le; -1.503<br/>gini = 0.471<br/>samples = 29<br/>value = [18, 0, 0, 0, 11]>, fillcolor="#f5ceb2"] ;
731 -> 732 ;
733 [label=<x<SUB>5</SUB> &le; 1.69<br/>gini = 0.444<br/>samples = 27<br/>value = [18, 0, 0, 0, 9]>, fillcolor="#f2c09c"] ;
732 -> 733 ;
734 [label=<gini = 0.0<br/>samples = 7<br/>value = [7, 0, 0, 0, 0]>, fillcolor="#e58139"] ;
733 -> 734 ;
735 [label=<x<SUB>3</SUB> &le; -1.524<br/>gini = 0.495<br/>samples = 20<br/>value = [11, 0, 0, 0, 9]>, fillcolor="#fae8db"] ;
733 -> 735 ;
736 [label=<x<SUB>5</SUB> &le; 1.702<br/>gini = 0.32<br/>samples = 10<br/>value = [8, 0, 0, 0, 2]>, fillcolor="#eca06a"] ;
735 -> 736 ;
737 [label=<x<SUB>5</SUB> &le; 1.701<br/>gini = 0.198<br/>samples = 9<br/>value = [8, 0, 0, 0, 1]>, fillcolor="#e89152"] ;
736 -> 737 ;
738 [label=<x<SUB>3</SUB> &le; -1.528<br/>gini = 0.444<br/>samples = 3<br/>value = [2, 0, 0, 0, 1]>, fillcolor="#f2c09c"] ;
737 -> 738 ;
739 [label=<gini = 0.0<br/>samples = 1<br/>value = [0, 0, 0, 0, 1]>, fillcolor="#e539c0"] ;
738 -> 739 ;
740 [label=<gini = 0.0<br/>samples = 2<br/>value = [2, 0, 0, 0, 0]>, fillcolor="#e58139"] ;
738 -> 740 ;
741 [label=<gini = 0.0<br/>samples = 6<br/>value = [6, 0, 0, 0, 0]>, fillcolor="#e58139"] ;
737 -> 741 ;
742 [label=<gini = 0.0<br/>samples = 1<br/>value = [0, 0, 0, 0, 1]>, fillcolor="#e539c0"] ;
736 -> 742 ;
743 [label=<x<SUB>1</SUB> &le; -1.434<br/>gini = 0.42<br/>samples = 10<br/>value = [3, 0, 0, 0, 7]>, fillcolor="#f08edb"] ;
735 -> 743 ;
744 [label=<x<SUB>6</SUB> &le; -1.282<br/>gini = 0.346<br/>samples = 9<br/>value = [2, 0, 0, 0, 7]>, fillcolor="#ec72d2"] ;
743 -> 744 ;
745 [label=<x<SUB>1</SUB> &le; -1.451<br/>gini = 0.219<br/>samples = 8<br/>value = [1, 0, 0, 0, 7]>, fillcolor="#e955c9"] ;
744 -> 745 ;
746 [label=<gini = 0.0<br/>samples = 5<br/>value = [0, 0, 0, 0, 5]>, fillcolor="#e539c0"] ;
745 -> 746 ;
747 [label=<x<SUB>5</SUB> &le; 1.696<br/>gini = 0.444<br/>samples = 3<br/>value = [1, 0, 0, 0, 2]>, fillcolor="#f29ce0"] ;
745 -> 747 ;
748 [label=<gini = 0.0<br/>samples = 2<br/>value = [0, 0, 0, 0, 2]>, fillcolor="#e539c0"] ;
747 -> 748 ;
749 [label=<gini = 0.0<br/>samples = 1<br/>value = [1, 0, 0, 0, 0]>, fillcolor="#e58139"] ;
747 -> 749 ;
750 [label=<gini = 0.0<br/>samples = 1<br/>value = [1, 0, 0, 0, 0]>, fillcolor="#e58139"] ;
744 -> 750 ;
751 [label=<gini = 0.0<br/>samples = 1<br/>value = [1, 0, 0, 0, 0]>, fillcolor="#e58139"] ;
743 -> 751 ;
752 [label=<gini = 0.0<br/>samples = 2<br/>value = [0, 0, 0, 0, 2]>, fillcolor="#e539c0"] ;
732 -> 752 ;
753 [label=<gini = 0.0<br/>samples = 30<br/>value = [30, 0, 0, 0, 0]>, fillcolor="#e58139"] ;
731 -> 753 ;
754 [label=<x<SUB>5</SUB> &le; 1.623<br/>gini = 0.337<br/>samples = 14<br/>value = [3, 0, 0, 0, 11]>, fillcolor="#ec6fd1"] ;
722 -> 754 ;
755 [label=<x<SUB>0</SUB> &le; 0.477<br/>gini = 0.444<br/>samples = 3<br/>value = [2, 0, 0, 0, 1]>, fillcolor="#f2c09c"] ;
754 -> 755 ;
756 [label=<gini = 0.0<br/>samples = 2<br/>value = [2, 0, 0, 0, 0]>, fillcolor="#e58139"] ;
755 -> 756 ;
757 [label=<gini = 0.0<br/>samples = 1<br/>value = [0, 0, 0, 0, 1]>, fillcolor="#e539c0"] ;
755 -> 757 ;
758 [label=<x<SUB>3</SUB> &le; -1.513<br/>gini = 0.165<br/>samples = 11<br/>value = [1, 0, 0, 0, 10]>, fillcolor="#e84dc6"] ;
754 -> 758 ;
759 [label=<gini = 0.0<br/>samples = 1<br/>value = [1, 0, 0, 0, 0]>, fillcolor="#e58139"] ;
758 -> 759 ;
760 [label=<gini = 0.0<br/>samples = 10<br/>value = [0, 0, 0, 0, 10]>, fillcolor="#e539c0"] ;
758 -> 760 ;
761 [label=<x<SUB>3</SUB> &le; -1.22<br/>gini = 0.274<br/>samples = 11762<br/>value = [9838, 0, 0, 0, 1924]>, fillcolor="#ea9a60"] ;
695 -> 761 ;
762 [label=<x<SUB>6</SUB> &le; -0.88<br/>gini = 0.198<br/>samples = 9432<br/>value = [8382, 0, 0, 0, 1050]>, fillcolor="#e89152"] ;
761 -> 762 ;
763 [label=<x<SUB>0</SUB> &le; 0.477<br/>gini = 0.482<br/>samples = 1537<br/>value = [915, 0, 0, 0, 622]>, fillcolor="#f7d7c0"] ;
762 -> 763 ;
764 [label=<x<SUB>4</SUB> &le; -0.746<br/>gini = 0.263<br/>samples = 724<br/>value = [113, 0, 0, 0, 611]>, fillcolor="#ea5ecc"] ;
763 -> 764 ;
765 [label=<x<SUB>5</SUB> &le; -0.928<br/>gini = 0.132<br/>samples = 633<br/>value = [45, 0, 0, 0, 588]>, fillcolor="#e748c5"] ;
764 -> 765 ;
766 [label=<x<SUB>0</SUB> &le; -0.117<br/>gini = 0.495<br/>samples = 29<br/>value = [16, 0, 0, 0, 13]>, fillcolor="#fae7da"] ;
765 -> 766 ;
767 [label=<gini = 0.0<br/>samples = 13<br/>value = [0, 0, 0, 0, 13]>, fillcolor="#e539c0"] ;
766 -> 767 ;
768 [label=<gini = 0.0<br/>samples = 16<br/>value = [16, 0, 0, 0, 0]>, fillcolor="#e58139"] ;
766 -> 768 ;
769 [label=<x<SUB>6</SUB> &le; -1.154<br/>gini = 0.091<br/>samples = 604<br/>value = [29, 0, 0, 0, 575]>, fillcolor="#e643c3"] ;
765 -> 769 ;
770 [label=<x<SUB>0</SUB> &le; 0.255<br/>gini = 0.302<br/>samples = 135<br/>value = [25, 0, 0, 0, 110]>, fillcolor="#eb66ce"] ;
769 -> 770 ;
771 [label=<x<SUB>1</SUB> &le; -2.27<br/>gini = 0.046<br/>samples = 85<br/>value = [2, 0, 0, 0, 83]>, fillcolor="#e63ec2"] ;
770 -> 771 ;
772 [label=<x<SUB>5</SUB> &le; -0.776<br/>gini = 0.5<br/>samples = 4<br/>value = [2, 0, 0, 0, 2]>, fillcolor="#ffffff"] ;
771 -> 772 ;
773 [label=<gini = 0.0<br/>samples = 2<br/>value = [2, 0, 0, 0, 0]>, fillcolor="#e58139"] ;
772 -> 773 ;
774 [label=<gini = 0.0<br/>samples = 2<br/>value = [0, 0, 0, 0, 2]>, fillcolor="#e539c0"] ;
772 -> 774 ;
775 [label=<gini = 0.0<br/>samples = 81<br/>value = [0, 0, 0, 0, 81]>, fillcolor="#e539c0"] ;
771 -> 775 ;
776 [label=<x<SUB>2</SUB> &le; -0.854<br/>gini = 0.497<br/>samples = 50<br/>value = [23, 0, 0, 0, 27]>, fillcolor="#fbe2f6"] ;
770 -> 776 ;
777 [label=<x<SUB>6</SUB> &le; -1.173<br/>gini = 0.404<br/>samples = 32<br/>value = [9, 0, 0, 0, 23]>, fillcolor="#ef86d9"] ;
776 -> 777 ;
778 [label=<x<SUB>3</SUB> &le; -1.491<br/>gini = 0.328<br/>samples = 29<br/>value = [6, 0, 0, 0, 23]>, fillcolor="#ec6dd0"] ;
777 -> 778 ;
779 [label=<x<SUB>2</SUB> &le; -1.623<br/>gini = 0.32<br/>samples = 5<br/>value = [4, 0, 0, 0, 1]>, fillcolor="#eca06a"] ;
778 -> 779 ;
780 [label=<gini = 0.0<br/>samples = 1<br/>value = [0, 0, 0, 0, 1]>, fillcolor="#e539c0"] ;
779 -> 780 ;
781 [label=<gini = 0.0<br/>samples = 4<br/>value = [4, 0, 0, 0, 0]>, fillcolor="#e58139"] ;
779 -> 781 ;
782 [label=<x<SUB>1</SUB> &le; -1.404<br/>gini = 0.153<br/>samples = 24<br/>value = [2, 0, 0, 0, 22]>, fillcolor="#e74bc6"] ;
778 -> 782 ;
783 [label=<x<SUB>3</SUB> &le; -1.487<br/>gini = 0.5<br/>samples = 4<br/>value = [2, 0, 0, 0, 2]>, fillcolor="#ffffff"] ;
782 -> 783 ;
784 [label=<gini = 0.0<br/>samples = 2<br/>value = [0, 0, 0, 0, 2]>, fillcolor="#e539c0"] ;
783 -> 784 ;
785 [label=<gini = 0.0<br/>samples = 2<br/>value = [2, 0, 0, 0, 0]>, fillcolor="#e58139"] ;
783 -> 785 ;
786 [label=<gini = 0.0<br/>samples = 20<br/>value = [0, 0, 0, 0, 20]>, fillcolor="#e539c0"] ;
782 -> 786 ;
787 [label=<gini = 0.0<br/>samples = 3<br/>value = [3, 0, 0, 0, 0]>, fillcolor="#e58139"] ;
777 -> 787 ;
788 [label=<x<SUB>4</SUB> &le; -0.767<br/>gini = 0.346<br/>samples = 18<br/>value = [14, 0, 0, 0, 4]>, fillcolor="#eca572"] ;
776 -> 788 ;
789 [label=<x<SUB>1</SUB> &le; -1.203<br/>gini = 0.48<br/>samples = 5<br/>value = [2, 0, 0, 0, 3]>, fillcolor="#f6bdea"] ;
788 -> 789 ;
790 [label=<gini = 0.0<br/>samples = 2<br/>value = [2, 0, 0, 0, 0]>, fillcolor="#e58139"] ;
789 -> 790 ;
791 [label=<gini = 0.0<br/>samples = 3<br/>value = [0, 0, 0, 0, 3]>, fillcolor="#e539c0"] ;
789 -> 791 ;
792 [label=<x<SUB>6</SUB> &le; -1.264<br/>gini = 0.142<br/>samples = 13<br/>value = [12, 0, 0, 0, 1]>, fillcolor="#e78c49"] ;
788 -> 792 ;
793 [label=<gini = 0.0<br/>samples = 1<br/>value = [0, 0, 0, 0, 1]>, fillcolor="#e539c0"] ;
792 -> 793 ;
794 [label=<gini = 0.0<br/>samples = 12<br/>value = [12, 0, 0, 0, 0]>, fillcolor="#e58139"] ;
792 -> 794 ;
795 [label=<x<SUB>2</SUB> &le; -0.344<br/>gini = 0.017<br/>samples = 469<br/>value = [4, 0, 0, 0, 465]>, fillcolor="#e53bc1"] ;
769 -> 795 ;
796 [label=<x<SUB>4</SUB> &le; -0.749<br/>gini = 0.009<br/>samples = 465<br/>value = [2, 0, 0, 0, 463]>, fillcolor="#e53ac0"] ;
795 -> 796 ;
797 [label=<x<SUB>5</SUB> &le; 1.32<br/>gini = 0.004<br/>samples = 461<br/>value = [1, 0, 0, 0, 460]>, fillcolor="#e539c0"] ;
796 -> 797 ;
798 [label=<gini = 0.0<br/>samples = 447<br/>value = [0, 0, 0, 0, 447]>, fillcolor="#e539c0"] ;
797 -> 798 ;
799 [label=<x<SUB>6</SUB> &le; -1.113<br/>gini = 0.133<br/>samples = 14<br/>value = [1, 0, 0, 0, 13]>, fillcolor="#e748c5"] ;
797 -> 799 ;
800 [label=<gini = 0.0<br/>samples = 1<br/>value = [1, 0, 0, 0, 0]>, fillcolor="#e58139"] ;
799 -> 800 ;
801 [label=<gini = 0.0<br/>samples = 13<br/>value = [0, 0, 0, 0, 13]>, fillcolor="#e539c0"] ;
799 -> 801 ;
802 [label=<x<SUB>1</SUB> &le; -1.143<br/>gini = 0.375<br/>samples = 4<br/>value = [1, 0, 0, 0, 3]>, fillcolor="#ee7bd5"] ;
796 -> 802 ;
803 [label=<gini = 0.0<br/>samples = 1<br/>value = [1, 0, 0, 0, 0]>, fillcolor="#e58139"] ;
802 -> 803 ;
804 [label=<gini = 0.0<br/>samples = 3<br/>value = [0, 0, 0, 0, 3]>, fillcolor="#e539c0"] ;
802 -> 804 ;
805 [label=<x<SUB>3</SUB> &le; -1.277<br/>gini = 0.5<br/>samples = 4<br/>value = [2, 0, 0, 0, 2]>, fillcolor="#ffffff"] ;
795 -> 805 ;
806 [label=<gini = 0.0<br/>samples = 2<br/>value = [2, 0, 0, 0, 0]>, fillcolor="#e58139"] ;
805 -> 806 ;
807 [label=<gini = 0.0<br/>samples = 2<br/>value = [0, 0, 0, 0, 2]>, fillcolor="#e539c0"] ;
805 -> 807 ;
808 [label=<x<SUB>2</SUB> &le; -0.791<br/>gini = 0.378<br/>samples = 91<br/>value = [68, 0, 0, 0, 23]>, fillcolor="#eeac7c"] ;
764 -> 808 ;
809 [label=<x<SUB>4</SUB> &le; -0.714<br/>gini = 0.114<br/>samples = 66<br/>value = [62, 0, 0, 0, 4]>, fillcolor="#e78946"] ;
808 -> 809 ;
810 [label=<x<SUB>6</SUB> &le; -1.115<br/>gini = 0.034<br/>samples = 58<br/>value = [57, 0, 0, 0, 1]>, fillcolor="#e5833c"] ;
809 -> 810 ;
811 [label=<gini = 0.0<br/>samples = 56<br/>value = [56, 0, 0, 0, 0]>, fillcolor="#e58139"] ;
810 -> 811 ;
812 [label=<x<SUB>4</SUB> &le; -0.74<br/>gini = 0.5<br/>samples = 2<br/>value = [1, 0, 0, 0, 1]>, fillcolor="#ffffff"] ;
810 -> 812 ;
813 [label=<gini = 0.0<br/>samples = 1<br/>value = [0, 0, 0, 0, 1]>, fillcolor="#e539c0"] ;
812 -> 813 ;
814 [label=<gini = 0.0<br/>samples = 1<br/>value = [1, 0, 0, 0, 0]>, fillcolor="#e58139"] ;
812 -> 814 ;
